58 200
. -0.00024924337 1.3155746e-05 0.0025081267 0.004524647 -0.004645782 -0.0035984209 0.0033386233 0.004596461 -0.0025472704 -0.0018304787 0.0036346312 -0.00081855064 -0.0022807526 0.0032752284 -0.0025074414 -0.00093014207 0.0014523648 0.0005306478 -0.0041892715 -0.004929464 0.0037132446 0.0024717045 0.003459982 0.00037562512 0.0031551626 -0.0017422667 -0.00044461753 0.00282016 -0.0038532505 -0.0020213486 -0.003731067 -0.00035867447 0.004919371 -0.003655155 -0.0011685784 -0.0009243428 0.0040217047 -0.0030576338 1.8266255e-05 -0.002452337 -0.004824146 0.0025269457 -0.004430359 -0.0022482346 0.000120240904 -0.00019271926 -0.0038777608 0.004767193 0.0025464797 0.004616184 -0.0040335357 0.0021927315 -0.0020230727 0.00040289847 0.0043189926 -0.0022299532 0.002242147 -0.003488557 -0.0018593139 0.0046861116 -0.0008478806 0.00012070682 -0.0020435022 -0.0038984462 -0.000885622 0.0013331407 -0.00047843863 0.002916361 -0.001507362 0.0013000927 0.0026547203 0.0042382623 -0.0007050537 -0.004596789 0.0022931187 0.0002539816 0.003841122 -0.00048635158 -0.0013716725 -0.00442887 -0.00042453295 0.0013777766 0.002593059 0.0036672514 -0.0029417821 0.00082636275 0.0031513737 -0.002362302 -0.0015443306 0.0034367968 0.00089515414 0.00012571493 0.0018711679 0.00020146529 0.0049667424 0.002517426 -0.004427471 -0.0035044963 0.0004502615 0.0032380046 -0.0043071182 0.0019470298 0.002626411 0.0028430813 0.0037056776 -0.0032360821 0.00059628615 0.0030849313 -0.001476542 -0.0031693503 -0.00018609462 -0.0042954013 -0.0027766898 0.003586619 0.0016965693 0.0035350136 0.00344074 0.0036846593 -0.0019236858 -0.00038151318 0.0011631479 -0.0021934747 0.0041698865 -0.005043112 0.0033704427 0.0015312796 -0.0025940968 0.0021896933 -0.0009178134 0.00335151 0.005016257 -0.0021954929 -0.0002838604 -0.0029213247 0.0018436889 0.0014173792 0.0034241204 0.0030508442 0.0047420957 0.004556888 0.0040565934 -0.0035630781 -0.0046862806 -0.00018961668 -0.0015426315 0.0039413823 0.0029470616 -0.00075335486 0.00082247396 0.0008905527 0.0039002676 -0.0048417826 -5.2805455e-05 0.0017565569 -0.00058210286 0.0042512445 0.0045044757 0.003333178 -0.00042546276 0.0039611408 -0.004186336 0.0016124637 -0.0022887888 -0.002468394 0.0018721601 0.0028003294 0.003917612 -0.002902732 0.0036726503 0.0033487522 -0.0018616788 -0.0043461123 0.0027965026 0.003256046 -0.00033271828 -0.0033469 -0.003642226 -0.0011649682 0.0026566018 -0.0018418342 -0.0047128582 0.0019630445 0.0023945526 -0.0032171458 0.00057591265 -0.0010484112 0.00016226278 -0.004844207 0.0014647007 -0.0023702055 0.0006427213 -0.0006655649 0.00098454 -0.003996074 -0.001406046 0.0013629014 0.002725512 -0.0012146562 -0.0047299354 0.0022288975
the 5.5274995e-05 0.0015083533 -0.0034291751 -0.00068208546 0.0038390884 0.0036638964 -0.0017885627 0.001368835 -0.0041731563 0.00311748 -0.0023331523 -0.0015996589 0.004650996 0.0004380664 0.0037182204 -0.0030506023 0.0025861585 0.004977064 -0.0042483215 -0.0026423577 -0.00349865 -0.0024614187 -0.0018589939 -0.00427032 0.003964499 -0.0024485 0.0042298925 0.0026021893 -0.0033055327 0.001957255 0.002740603 -0.003681936 -0.0036487228 -0.0012468835 -0.0043061273 -0.00078015577 -0.00020005509 0.0016262555 0.000720597 -0.0004607748 -0.002799774 0.000874242 -0.00046314762 0.0033836812 0.002035174 0.0022491666 0.0006916723 -0.0013502011 -0.0021553028 -0.0005118873 0.000741176 -0.0013342043 -0.0035203146 -0.0039006555 -0.0045452495 -0.0029627949 -0.00092456606 -0.0021928132 -0.0032679564 -0.0018592629 0.0021273382 -0.0018775959 0.0042007836 0.00074358174 -0.0036649222 0.004754214 0.0038058502 0.0028015198 -0.003475583 0.002963408 0.0019758204 0.002619127 0.0021379848 0.0009637448 -0.0015407823 0.004164134 0.004860066 0.0018733741 -0.0014378061 -2.0899382e-05 0.0005999933 -0.004238171 -0.004151656 -7.043159e-05 0.00058678776 -0.0029070121 -0.0023187005 -0.0036589375 0.0041726343 7.5194286e-05 -0.0022271113 0.0028601144 0.004638287 -0.0020117573 0.0040401695 0.0026825694 0.0029493212 0.00025464318 0.004107521 -0.0034903206 -0.004129462 0.0046902983 -8.0552396e-05 -0.0009883363 0.0022923413 -0.002106359 0.0013887233 0.003487035 0.0030057854 -0.003783339 0.0047040763 0.00227855 0.0019903479 -0.0031051496 0.0042302962 -0.0011022786 0.004429528 -0.0027063456 -0.004075915 0.0033790392 0.0008277213 -0.0010772668 0.0047501596 0.0046982076 -0.0048982874 0.0012791774 0.0030315712 0.0019278332 0.0009996865 0.00021265127 0.00035608694 -0.001917793 -0.0035668996 -0.0010803689 0.0019276976 0.0044148606 0.0046300064 -0.0029882593 -0.004708153 0.0048499852 0.0017564929 0.002557414 0.0031043636 -0.001403045 0.0036593603 0.0014129352 0.0014257436 -0.0011905452 -0.0015423717 -0.001194796 0.0021430477 6.0732636e-06 -0.004769408 -0.004816464 -0.0031171776 -4.4201075e-05 0.0010069192 0.0047338535 0.0027710104 -0.0021020635 0.00016067555 0.0024889538 0.0038545865 -0.00055191905 0.0021931569 -0.0028683671 -0.00039092597 0.004042366 -0.0011924426 -0.004820715 0.0028831044 -0.001956784 -0.0005813242 0.0049960185 -0.0011084878 -0.0023737417 -0.0027124218 0.003522807 -0.0028251396 0.0010462833 -0.0026440993 0.0030828046 0.0021613573 0.00129725 -0.0007599556 -0.0013777007 0.0045430902 0.002640745 -0.0010302064 -0.004723282 -0.003676924 -0.0004849678 -0.00044883793 -0.0013131389 0.0048298202 -0.00021772628 0.0029501675 -0.0037303458 -0.0012413163 -0.0027764633
a -0.0035765318 0.00057886617 -0.003620483 -0.0010979221 0.001866103 0.0029105956 0.0006758821 0.0011265175 -0.002080447 0.0036331543 -0.0031784289 0.002298101 -0.0041052457 0.0010182832 -0.0025293455 -0.0021394566 -0.001546231 0.0028494177 0.0028615019 -0.0025858649 0.0004267629 -0.004285907 0.003946722 0.004617012 -0.0013759043 0.00035911833 0.00039354395 0.002683071 -0.0043451576 0.00025833384 0.0034412583 0.0011629461 0.0006424482 -0.0046635643 0.0042561144 -0.0031113375 -0.0014963758 0.0017068172 -0.0003800405 0.00066812505 0.0008822426 -0.0033990785 -0.0048787156 0.0044825007 0.0031802228 -0.0034874352 0.0016728927 0.000102050035 0.0024204373 -0.0035695382 0.0020392314 0.0021528965 0.0049950527 -0.0022308098 -0.0006706969 -0.003657641 -0.004847462 -0.0045857 -0.0005465959 -0.0032609056 0.002404729 -0.0030970923 0.0012832088 0.00033302253 -0.0017709727 -0.00044225197 0.0049685775 0.0046561877 -0.0023048175 0.004622555 -0.0028668651 0.0030058748 -0.0015319936 0.0017127853 0.0015655166 0.0034232787 -0.0011184268 0.004343384 0.003752064 -0.004816203 -0.00400538 -0.0038452547 0.0014112494 -0.00132412 -0.0035060728 -0.004119479 0.004205337 0.0010075263 -0.0046565174 -0.0023744362 0.0016049806 -0.0023523285 0.002709141 -0.0020610935 0.0014196372 -0.0040231193 0.003122015 0.0024209544 0.0004019776 0.0015231937 -0.004375396 0.0011221316 -0.0004229832 -0.0046616206 -0.0047192816 -0.0007940805 0.002239268 0.0018864775 -0.003290736 -0.0034837741 -0.0024797616 -0.0012195497 -0.0036093744 -0.0047778385 -0.0013673339 -0.004219398 -0.002994322 -0.002876391 -0.0011770366 -0.00090273004 -0.0044875857 -0.00033741916 0.004064003 0.0037793089 -0.003622058 -0.0017996968 0.0014874616 -0.004796569 0.00072053313 0.003259711 0.0029091116 -0.004391356 -0.0022552228 -0.0041141 -2.9590394e-05 0.0046499646 0.0029906987 0.002538407 0.0025255615 -0.0016685703 0.004832857 -0.0037051472 -0.0036872327 -0.0011422841 -0.00039808635 -0.0016142112 -0.00030772996 0.0037417144 -0.00031394887 -0.00082242815 0.0013732545 -0.004226087 0.003948079 0.0042864787 -0.0048384983 0.0012375459 0.004951397 -0.0038099657 -0.0035114097 -0.003813403 0.0042380863 -0.00032830203 0.00459611 -0.0040490613 0.0019092243 0.0013736035 0.0003798337 0.0011276628 -0.0037618056 -0.0046720193 0.0011652103 0.0030843546 0.0040342524 0.0028615687 -0.0003546689 0.0041467017 -0.0047366302 0.0017462338 0.00017783813 0.0019178711 0.0036835375 -0.0033360377 0.0027576184 -0.0047686314 -0.00042093417 -0.0043625585 -0.0024858718 0.0046925396 -0.0008531921 0.0014729112 0.0045749 0.004539068 -0.0041621705 -0.0015395985 0.004942818 0.0025568835 -0.00078581145 -0.0043473486 0.0014995957 -0.0033473875
and 0.004088904 -0.0023554456 -0.0005247988 0.0005795711 -8.74732e-05 0.00051163137 0.0032252534 0.00012025254 -0.001744795 -0.00071240554 0.0028527034 0.00066887494 -0.0003505684 0.0047049117 -0.002562309 -0.00043536906 0.0046034493 0.0034231814 0.00072555564 -0.0047142846 0.00064161076 -0.0012376864 0.0047556744 0.00059006264 0.0007309584 0.0011722182 -0.0009092831 -0.0025490015 -2.8200102e-05 -0.0010794619 0.0033648454 0.0046293875 -0.00018420017 0.0015258475 -0.003067849 0.000938571 -0.0034597695 -0.0044549895 -0.0029600442 -0.004608738 0.0035771462 -0.002879489 0.00407864 -0.003642352 0.0018816346 0.004832575 -0.003953486 -0.005021606 -0.0021379632 -0.0013236537 -7.706792e-05 -0.004472052 -0.0042442856 0.001361375 -0.004014324 -0.0045716087 -0.0011958457 -0.0044542756 -0.0036898716 -0.0042185546 -0.00023866886 -0.002319988 0.0033519557 0.00069699925 -0.0018745413 0.0031428456 -0.0030227655 -0.0021170145 -0.0037721226 -0.0019345789 -0.0009805831 0.0033266603 -0.0013653694 0.002463652 0.0036094938 -0.0037571352 0.0024004614 0.0029862057 -0.0015163994 0.0032525002 0.0030836163 -0.003290667 -0.0035162065 0.0014632763 -0.00089990406 -0.003143031 0.004927304 -0.0024981352 -0.003250753 4.379298e-06 -0.0012461799 0.0002990432 -0.0016159567 -9.935619e-05 -0.0001606825 0.00038551324 0.0041043786 -0.002850282 -0.0008074641 0.0028685117 0.0040990463 -0.0021050908 0.0045447554 0.0040859715 -0.0022436136 -2.360692e-05 0.0022089083 -0.0019196952 -0.0028261389 -0.0033099193 -0.0003506355 -0.0002964599 0.0022545375 -0.0011978088 -7.005141e-05 0.0011355489 0.002509245 -0.00013474573 -0.0032439095 -0.0047922255 5.6941408e-05 0.003456253 0.0006668467 -0.004594113 -0.003959769 0.0033784984 -0.0020274117 0.0031306264 -0.00343208 0.0042489097 -0.0031926169 0.0016283285 -0.00053359586 -0.003471749 -0.0017412192 -0.00053897896 -0.0027425662 -0.00061170873 -0.0038012909 0.0012647337 0.0046754475 -0.0012795965 -0.00063010375 0.0017440782 0.004345621 -0.002927984 -0.003471758 -0.0013992015 0.004672341 0.00045101708 -0.004334694 -0.0008751555 0.0048204865 -0.003775486 -0.0028844879 0.0048009707 -0.004531947 0.0020422186 0.00022422304 0.0034751846 0.00425995 -0.0014088509 -0.0019629244 0.0045307158 0.0011582938 0.0032359543 -0.004692799 0.0048210965 -0.0007057859 -0.002983759 0.001514522 -0.000178597 0.0024260809 -0.0011806053 -0.001998669 0.0011644183 0.0040527796 -0.0023757878 0.0014458036 -0.00399738 -0.0034259732 -0.00018580549 -0.004441193 0.001391353 0.0007608784 -0.0011894772 0.0027107133 0.004972428 0.0043501137 -0.00096317026 0.0011608202 -0.0018375764 -0.004259642 0.0030758958 -0.0010742713 -0.00029988767 -0.00076535373 -0.0022619343 0.0020627866 -0.0021665639
, -0.00478566 0.004432565 0.0020790473 0.004627569 0.0033306407 0.0014405969 0.0049476507 -0.0021621617 -0.0034236356 0.0021205551 0.0018423971 -0.0028647843 0.004837687 -0.0017728683 0.0047399993 0.00041411942 -0.003156892 -0.000983698 -0.003707476 -0.001558117 0.0005404722 0.004729804 0.00470265 -0.0033099563 0.0017354406 0.0011286355 -0.001238933 -0.004638182 0.00048506638 -0.004094917 0.0031687242 -0.0028637906 0.0028098 0.0049113575 -8.3349645e-05 0.0022742846 -0.0008983279 0.0036444338 0.0019682415 -0.0045396667 -0.0012080407 0.0018183494 -6.0259626e-05 -0.0006242819 -0.00046920028 -0.00083615154 0.00027861897 0.0020650614 -0.0021098594 -0.0019185663 -1.7435377e-05 0.00010858234 -6.380311e-05 -0.0023969018 0.00217515 -0.0010937528 0.0010550723 0.00029688238 0.002954216 -0.0034175299 -0.0034342036 -0.0022460474 0.004736024 -0.0008081486 -0.004770727 -0.00023291053 -0.0022354426 0.00305003 -0.0048419824 0.0014880142 -0.0046491832 0.00065078377 0.0030128236 0.0036867687 -0.003775488 -0.0030541592 -0.0033765808 -0.003986555 -0.004773045 -0.0010863375 -0.00041313286 -0.0036516741 0.0033701977 0.0006110501 0.002889241 0.00070720364 0.0004298026 -0.003668463 -0.0010955202 0.0021657695 -0.0025091977 0.0005783297 0.0014977203 -0.0007418926 0.0050201635 0.004160403 0.0012144769 0.0035630476 0.002939294 -0.0027609216 -0.0025878556 -0.0032866166 -0.0038786253 0.0041580657 -0.0009984592 -0.003485429 -0.0020736032 0.002598381 -0.001465977 -0.0018968381 0.0008147472 -0.0014284967 -0.00077812775 0.0005635206 -0.0014777748 0.0042237835 0.0019611614 -0.0050068465 0.0031224978 -0.003423191 0.00038802734 0.002219783 -0.0025782357 -0.0010850065 0.0040236977 -0.0020931074 -0.0038507418 0.0046363906 -0.0010866798 -0.002361767 0.0043008938 0.002130263 0.0021553063 0.0046280776 -0.004252116 0.0026424427 0.0010249118 0.002091496 0.00085085904 0.0022116343 0.0022896554 0.003019237 -0.0016402042 -0.0022851496 -0.00021284267 0.001268465 -0.001648559 0.003027792 0.002110618 0.0038709887 0.00127783 0.004023665 -0.0006662974 0.0040382585 0.0018312575 -0.0040015527 -0.0019652715 -0.001210849 0.0024200268 -0.00039347686 -0.0013857954 0.0039162165 0.004666989 -0.00078742066 -0.0025422233 -0.0023195634 -0.0024115962 -0.0048011546 0.0006753923 -0.002098104 0.0012637601 0.0028019536 -0.0020112935 -0.004800897 0.0008083405 -0.0033432744 0.0012145198 -0.0018593213 0.0035721643 0.00030577858 0.0017664633 -0.0013526927 -0.00086953933 0.0038252377 0.0006942705 -0.0029377367 -0.0038759476 0.0006467776 0.0032834415 0.002786392 -0.0044527138 0.0043442682 0.001991889 0.0037158597 0.0048578447 -0.0036272167 -0.004494538 0.002912317 0.0047100773 0.0017485751
to 0.0035653112 -0.0008412763 0.003953537 -0.004718689 -0.0040130313 -0.0033504416 -0.0019306655 0.0025642517 -0.0019388408 -0.0041338415 0.0041788514 -0.0019133647 0.004297739 -0.0024359894 0.0019228864 0.0024480864 0.0011978325 -0.0013891186 0.0013909996 -0.0042404057 -0.00135543 -0.001328014 0.0036711788 -0.0017362382 -0.0033116902 0.0021483938 -0.00022354303 -0.0018346366 0.0033769966 0.0019011159 -0.0019344722 0.00043761331 0.004657488 0.0038746581 0.003173254 0.002359759 0.0011961347 -0.00096952304 -0.0031916674 -0.0001894003 -0.0008017345 -0.00027745764 -0.0031520508 0.0036974307 -0.003216871 -0.003636216 -0.0014136352 -0.0007824578 -0.003791215 0.00035477857 -0.0026301953 -0.00067554554 -0.0036622814 0.0009713378 0.001677453 -9.105306e-06 -0.0027216128 -0.0009154381 0.0034816305 0.001864419 -0.0044784923 -0.0017241923 0.0011951724 0.0010420539 -0.004809832 0.0023411254 -0.004349262 -0.0036042128 0.0016657807 -0.0016548225 0.0017381171 0.004478346 -0.0017727896 0.004663525 0.0009282702 0.0049154684 0.0029189484 -0.0046121194 -0.0016927564 0.003227744 0.002809271 0.004323037 0.0034023037 0.004100984 -0.0049694683 0.0020997615 -0.0024500475 0.0017796848 0.0030363966 0.0022226865 0.0037984843 0.000778162 -0.0005550954 0.002942791 -0.0027203711 1.282352e-05 0.0047483915 -0.002723772 0.001896701 -0.0040303683 0.0048867245 0.004136095 0.0006689167 0.00254286 0.00068313855 -0.0033140571 -0.0006871874 0.0032557978 -0.002345968 -0.0020439203 0.0024717394 0.001292965 -0.0009049551 -0.0014154111 0.0030226507 -0.0029046962 -0.001602714 -0.0032916148 -0.0021433732 -0.004353999 -0.0022314007 -0.004215944 0.0006775393 -0.004384413 -0.004968985 -0.0040527047 -0.0034627724 0.0033368357 0.0018656555 0.00017398567 -0.0014606728 -0.003719461 0.00027565705 0.00020812501 5.6015968e-05 0.00044495997 0.0003877118 -4.0822273e-05 -0.004025455 -0.0029694426 -0.004121799 -0.0007058022 0.00084978354 0.0037139975 -0.00097354903 -0.0011597134 0.0047342908 4.5866822e-05 -0.0011700122 0.0043029143 0.0013388178 -0.0027222773 0.0033260684 0.0022593138 -0.0036034852 -0.000118608004 0.00039866564 0.0029148995 -0.00090415176 -0.0013287511 0.0009239358 0.00043451067 0.00060456234 -0.0012782086 -0.002941661 0.003724956 0.0038210487 0.0041496456 -0.0043282304 0.0013575063 -0.0017779362 0.0048237327 0.0014920774 0.002314089 0.0012381418 0.003308669 -0.0029315425 0.003992201 -0.0011529234 -0.0022796579 -0.0010492387 0.004890437 -0.0034704097 -0.0011023111 0.0034738975 -3.687679e-05 -0.0030645544 -0.0031379438 0.0045422595 0.0032104324 0.0024438554 -0.0015656288 -0.0046943007 0.0018645668 0.0035369645 -0.0028071 -0.0038948213 -0.0014978322 -0.0024443325 -0.0011745843
good -0.00095713534 -0.002696203 0.0047033466 -0.004632237 0.0022664657 0.0026734923 -0.00066046236 0.0045604846 0.004923666 -0.002709824 -0.0030277818 -0.0034009493 -0.0039684405 -0.0015144867 -0.00282848 -0.0041856463 0.00039326402 0.001504191 0.0031847493 -0.001411498 -0.0022009665 0.0005859548 0.00024209189 0.004065136 9.835241e-05 0.0036041506 -0.0041118925 0.0042068586 -0.0010013783 0.004335585 -0.0037978203 0.00094987167 0.0006043205 2.4958017e-05 -0.0025560027 -0.004604129 -0.0036390258 -0.0040325406 0.0009501125 0.00019071643 -0.0009311504 0.0035576415 -0.0012660318 -0.0007119921 -0.0043844655 -0.0049877674 0.0044350657 -0.002893628 -0.003158345 0.0026128362 0.0033487403 -0.0034474242 0.0004967728 -0.0029958133 0.00086316856 -0.0021500455 -0.0017295063 0.0010455254 0.004285953 0.0033677884 -0.004871109 -0.002828543 0.003954981 0.0009613437 -0.0022021146 0.0003472476 0.0047470354 -0.00046601272 -0.004763903 0.0008891425 0.0030804467 0.003167959 0.0020427655 -0.0028249077 -0.00012452419 -3.0068324e-05 0.0023451832 -0.0040549706 -0.004025553 8.899744e-05 -0.0042992993 0.0028945138 -0.0002678307 0.0050618285 -0.002720394 -0.00028438302 0.0039311107 -0.0020175038 -0.0025039793 0.0008085717 0.0013643688 -0.0012549248 0.0032815295 -0.0037759217 0.0017723799 0.0002448093 0.004373711 0.002987538 0.0034037093 0.003928794 -0.0047476157 0.0048415153 -0.0038788607 -0.0013459413 -0.0024605778 -0.002551294 -0.003979055 -0.0038576357 -0.002298801 -0.0006860078 -0.0025407232 0.0030238032 -0.0047374372 -0.0026320175 0.004749397 0.0034480074 0.0038527523 0.0020787308 0.00023078581 -0.0030492856 0.0030127154 0.0013498705 0.0038340404 0.0031355468 0.003971638 0.0043589273 -0.0050117467 -0.003377057 0.000651685 0.003215441 0.0036938866 0.002745082 0.0038520538 -0.0026008456 0.0032632886 -0.0020442912 -0.0045278324 0.0045638857 0.0006564405 -0.001406169 -0.0011982342 -0.0021342968 0.0023480863 0.0021979548 -0.0013191612 -0.003670062 -0.0017810976 -0.0001578932 0.0030801054 -0.0014126434 -6.616463e-05 0.00038535948 -0.0035249314 0.0010419898 -0.0007847836 0.0014517411 0.0024214953 -0.0006405256 -0.0014315981 0.0039214515 0.002567886 0.0033711772 0.0022702215 0.0043713795 0.0037657802 -0.00047349188 0.0043784543 0.0022923972 0.0027018855 -0.00067300675 -0.0010203903 -0.0021930796 -0.0042173695 0.0015228345 0.004470541 0.0044511887 -0.0010145354 0.0030820838 0.0019381064 -0.0021529181 0.0010152949 -0.0027051545 0.0040732496 0.0027038069 0.0015896858 0.002053503 0.0044077216 0.0036756047 -0.00035348214 -0.0035436172 0.0042525176 0.003676228 0.00079727976 -0.0007068923 -0.002974696 -0.002246165 0.0043549705 -0.0015900363 -0.0031561248 0.0049146335
was 0.0038442106 0.004513223 0.00057354505 -0.0041582845 0.004206237 -0.0018789729 0.0029281154 0.002252244 0.004800553 -0.0046453685 0.004570975 -0.0046711788 -0.0034605917 -0.004551124 -0.0028076891 0.0036854446 0.0045959344 -0.001648674 0.0018313378 -0.0019165996 0.003961152 0.0029047162 2.470138e-05 -0.0018217661 -0.0036211256 0.002360618 0.0007440203 -0.0013312127 0.0038843933 -0.0020523958 -0.0045698956 -0.0010646721 0.000118330514 -0.0033176597 -0.002739926 -0.0042373515 0.004621455 0.0036489796 -0.00014228842 0.003640278 0.0039534606 -0.00037919093 0.0032802273 0.0018565856 0.0026207736 0.0036258656 -0.0023898897 -0.0011027975 0.0004616179 0.002115841 0.0016725359 0.0025274714 0.002321563 -0.0042270883 -0.0015595872 -0.0036287003 0.0048225657 0.0024632136 4.7994672e-05 0.0020744593 -0.0038501362 -0.0031499376 0.0015408115 0.003243345 0.0019191202 0.0030428963 -0.0010080273 -0.0015917026 4.3897966e-05 -0.0015030963 -0.0027870215 -0.0038640574 0.0032847528 -0.00055988523 -0.000895365 -0.003921217 0.00472614 0.00039024223 0.0008713567 0.0012173805 -0.00368539 0.00079900614 0.0014424894 -0.00421433 0.002453207 0.0011734253 0.0037917804 0.002540884 -0.001494175 -0.0035640507 0.0035992423 0.00097290607 0.0026751293 0.0032350249 0.0010376691 -0.0030805336 1.8436772e-06 0.0041296924 -0.0030328222 0.004750763 -0.0035909314 0.002175489 0.0010945547 0.00370604 -0.0024434295 -0.0023507897 -0.0030263946 0.001685227 -0.002280171 0.004235671 -0.00215252 -0.004601496 -0.0024066058 0.003231226 -0.0031673813 -0.002664374 -0.0036346505 0.0029923944 0.0016591169 0.0013689726 -0.0015671802 0.003048323 -0.003106703 -0.0010373701 -0.003005729 -0.00046647896 -0.0010554194 0.004238154 8.071432e-06 -0.004279315 -0.0026945048 -0.003454692 0.0013395825 0.004702677 -0.0029460273 0.0041443724 0.0042754826 -0.0035215586 -0.004428664 0.004706989 0.0042514806 -0.0023692027 -0.003404101 0.003917949 0.0018801377 0.004064459 -0.0037975588 -0.0047501544 0.0008370548 -0.0049149757 -0.002457274 -0.0017991137 0.0048353425 0.004315119 -0.0014693382 0.0029556311 0.004118108 -0.0010900793 0.0047262274 0.0036369984 0.0010506804 -0.0019137311 -0.0025285126 -0.0014954662 0.0039936546 -0.0030447687 -0.0014410483 0.004581333 0.0017176777 0.00303912 -0.00403648 -0.000371344 0.002791612 -0.0023662057 0.0037754092 0.004665398 -0.00025600515 -0.0009740658 -0.00024400173 -0.002914552 -0.0041940333 -0.00071153394 -0.0012929091 0.0021954172 -0.003457707 0.0026968925 -0.0033018014 -0.0038695126 0.004290352 0.004452519 -0.0017056228 0.0018133976 -0.0029517945 -0.004409532 -0.002783196 0.0033876158 0.0032402375 0.0047101206 0.003544576 0.0033733414
is 0.00065509905 -0.0049169655 0.0022986196 -0.00026909367 0.0031729902 0.00087922486 -0.0015273369 0.003903915 0.0007637362 2.2429862e-05 -0.0023155466 -0.004242845 -0.003888675 0.004326543 -0.0044822944 0.004516457 -0.004629812 -0.00013015686 -0.00096309057 -0.004501536 0.0043276716 0.003384154 0.0015205439 0.0024097858 5.095278e-05 0.004708725 0.003516731 -0.004939819 -0.0022295644 -0.000658167 0.0015228572 -0.002147024 0.000742499 -0.0039215796 0.0013863511 0.002358272 0.0024752596 -0.0016023886 -0.0042092977 -0.004629521 -0.00036074204 -0.0036668957 -0.0034120516 0.003054248 0.003614907 0.0010594111 -0.0039612968 -0.0028595743 0.0040302016 0.0019637626 -0.0026086234 -0.003713644 0.00039633954 0.0017222213 0.0010400331 0.0015474373 -0.002809918 -0.004968415 -0.0035265235 0.00011672594 0.0022939532 0.0022608358 0.00095259567 0.002580088 -7.530628e-05 0.0020789711 -0.004572036 0.0038804517 0.003045778 0.002587928 0.003591764 0.004238719 0.00038423788 -0.0008558357 0.0002847771 -0.004667969 0.0042221784 -0.0032062242 0.004201736 -0.0021309862 0.00032037564 -0.0045942767 -0.0047952035 -0.0038891723 -0.0038819483 0.00017544464 -0.0035932083 -0.0024731616 -0.002637533 -0.0021409516 0.003527782 0.0024304988 0.0043782946 0.0035642982 -0.0028125679 0.00360697 -0.004647246 -0.0012936842 -0.0038843567 0.0021095811 0.0009014734 0.0035486384 0.0014778052 -0.003490677 0.0038562522 -0.0030318154 0.0045031053 0.0014983504 -0.0020203602 -0.002357259 -0.0022090767 -0.003094511 0.0046976106 -0.0013135696 0.0038937358 -0.0048529995 0.0010540758 -0.0006310686 0.0037665453 -0.0045554265 0.0037200928 -0.002541644 -0.0030211604 -0.0028384575 -0.0017006585 -0.0016953738 -0.0016197859 -0.0037372804 0.00034327633 -0.0002917486 -0.0008406452 0.0018739784 -0.003809767 -0.0016164773 0.002561422 0.004276292 -0.0049020536 0.003594736 0.0026519124 -0.0019433248 0.0043132207 -0.0046229055 0.0036122873 0.0026870319 0.00064570503 -0.0025911208 -0.0021032095 -0.0016751128 0.00082235876 0.00078937993 0.0036887485 0.004966653 0.0044518886 -0.002006277 0.004808636 -0.0002982993 0.002434039 0.0012954734 -0.0003244281 0.0018576592 -0.0026461226 -0.0028812797 -0.0038035142 0.00096881815 0.00327809 0.00046174513 0.00063951086 0.0015933056 0.004062281 -0.0038464677 0.0011343728 -0.0037344557 0.0018704584 0.004748881 0.0037801447 0.0032211356 0.003992383 0.0032927063 0.0034494225 0.0043287342 -0.0024850417 0.004625423 0.0025222471 -0.0010551824 0.0042388225 0.0025453568 0.004847849 0.0014289066 0.004968067 0.0005966813 0.0045876103 0.0018183868 0.0032552234 -0.0018174999 0.0033823731 0.0036267103 -0.0010546364 -0.00093412056 0.0018127151 -0.0035171416
place 0.004886884 -0.0049170973 -0.003272404 0.0014094426 0.0032264572 -0.0026911984 0.001418143 0.0045923386 -0.0034165124 -0.0030302797 -0.0025028824 -0.0018556337 0.00091660576 0.004856463 0.003191009 0.00018702049 0.0012384709 0.0042392304 0.0045534936 0.0027591488 0.002997252 -0.0038326052 -0.0018775457 -0.0028406852 0.0030931332 -0.0011373993 -0.0043878825 0.0037900968 0.004173423 -0.0016693983 0.0045605632 -0.00033784786 -0.0017648481 -0.00019236896 8.855294e-05 -0.0017352989 0.0013985672 0.00284685 0.0034297213 -0.0044740844 -0.0011039156 -0.002736356 0.0037520314 0.0032299482 -0.0021497703 0.001136023 -0.0029987316 0.00010039994 0.0047562122 -0.0012990141 -0.0025896388 -0.0037129717 -0.0014519959 -0.00043632172 0.001785214 0.00487165 -0.0016896167 0.00092577515 0.0048185536 0.0007556891 0.00048477802 0.004872327 0.004660117 0.003835899 -0.0031315049 0.0050190752 0.0029108943 0.004575312 -0.0010300813 0.0017160316 0.0033973444 -0.001926781 0.0033259979 0.001292878 0.004688668 -0.0015321504 -0.0015107917 0.0030852645 -0.004554731 -0.003638602 -0.0032390025 -0.0003856621 -0.0012115897 0.0034482637 0.004586263 -0.00049713784 0.00074730185 0.0010224489 -0.0010146364 -0.004016398 0.0037401465 -0.0021402761 0.0023172651 0.0045729643 0.0015600107 0.00157703 0.0020373617 -0.0013448134 0.0019104147 0.00017993418 0.0028157611 0.0027866862 0.000928681 0.0028668582 -0.0044814064 0.003240395 0.0046298853 -0.0020836364 0.00079400424 -0.002652656 0.0005477596 0.0013422641 0.0040957304 0.0002909617 0.0012813418 0.0006225125 0.0042202943 -0.0028882544 -0.0031428547 -0.0018426174 -0.0011554115 0.0025437542 -0.004056995 -0.0014554827 -0.0040987846 0.0025944537 -0.0013331894 -0.0045286296 0.0020191697 0.0044958326 -0.0015090773 -0.0029251801 0.0015176403 -0.0002550305 -0.0050192703 0.0042180317 -0.0036774597 -0.0024699287 -0.0013459221 -0.0027412393 0.0008698056 0.0048312834 0.002249781 0.004042956 -0.00023274774 0.00031414596 -0.0013376656 -0.0043953094 0.0017276623 0.0010568555 -0.0047062864 -0.0025031916 -0.0048610754 -0.0028493048 0.002004642 0.0043372945 0.002056813 0.001210834 0.0040605427 -0.0005356202 -0.0006705501 -0.004378974 -5.5057088e-05 -0.0012579969 0.00020444453 0.0036710827 -0.0035189658 -0.001982625 -0.0033494325 -0.0017508998 -0.0016547935 0.0010789165 0.0016860615 -0.0024806228 -0.0022571038 0.00056442857 0.0026881695 0.0027011277 -0.0014657238 -0.00213199 -0.0028310153 -0.00026167353 0.0009495801 0.0007633934 0.0036888372 -0.0013632404 4.8069605e-06 -0.0027340958 -0.0005449317 -0.0038586545 -0.00044637703 0.0006834978 -0.004324579 0.0043573114 -0.0046164184 -0.0047978535 -0.004236899 0.0036543624 0.0027277432 0.0046115997
this 0.0012924869 0.0003856734 -0.0012814504 0.0046967077 0.0013718532 0.0020285668 -0.0005483325 0.0005033882 0.0032936498 -0.0003436415 0.0016505087 -0.0003647608 0.002623964 0.0018289338 0.0012647355 -0.0026631888 -0.0023455159 0.002157436 -0.002976172 -0.00016289321 -0.00029899264 0.0017300219 -0.004190533 0.004409243 -0.0007301415 -0.00267893 0.002033175 -0.0009877873 -0.003923972 -0.0022606498 -0.00019443325 -0.004434406 0.00034437215 0.0012235652 -0.0016181078 0.0012924412 0.0012419989 0.0049529164 0.000706867 0.0009824642 0.0013763166 -0.0010296687 -0.004363281 0.003984914 -0.000934592 -0.0048570675 -0.0032973003 -0.001988138 0.001991159 0.0025153446 0.0030643835 -0.0034122104 0.00034814398 -0.001388026 -0.0025765689 0.0034858047 0.0019794255 -0.0015875429 -0.004170871 -0.0025650922 -0.0003540953 0.0038925551 0.0030263346 -0.0042423015 -0.0048297993 0.00360272 -0.0011753971 -0.0017958947 0.0028293803 -0.0028672544 0.0025201424 -0.00010596272 -0.0034328192 -0.00017288908 0.0032175223 0.0046353037 0.00116318 0.0024990446 -0.0025118208 -0.00042537626 -0.0026531832 0.0005829839 -0.0009284645 -0.0017600547 -0.0035465776 0.0047912137 0.0015224732 -0.0011251492 -0.0020842555 0.0038711072 -0.003206876 0.0015713193 0.00044024832 0.0041996525 0.0034842042 -0.0014619675 0.0012875606 -0.0008264998 -0.0047336607 -0.0012792133 0.000662098 0.0033131444 0.005005767 0.004535866 -0.004017888 0.0031953612 -0.0028420668 -0.0004628088 0.00021701591 0.0032618993 0.0022423659 0.0022632154 0.00475105 0.00020938093 -0.0030020818 -0.0031964753 0.0032240027 -0.002646529 -0.0014449448 0.0019976113 -0.001144766 -0.0029898272 -0.0011756796 0.0005479412 0.0010785733 0.0030829778 -0.0026630089 0.0015319417 0.0036033574 0.001103873 0.002709209 -0.0024201975 0.0030828542 -0.0038240578 0.0017205882 -0.004651293 -0.0013029699 -0.004535422 -0.00079903094 -0.00270282 -0.0019251921 0.00054656924 0.0013597816 -0.00075993256 -0.0040818388 -0.0029564376 0.00040253287 -0.0019764958 -0.0046745627 -0.00039406982 0.0033076329 0.0029499165 -0.0049358523 0.0015640501 -0.0030411303 -0.004563028 7.9014724e-05 -0.00015585647 -0.0035126775 -0.0030855222 -0.001172113 0.0035614767 -0.0037681283 0.0038792577 -0.00019964535 0.00058709114 0.0047498154 0.0023563162 -0.0018058909 0.001890227 0.0017508487 0.003172788 5.708197e-05 -0.0022222996 0.00069133495 -0.00271073 0.0006691607 0.0024896238 0.0026173105 0.0045811944 -0.0037591471 -0.0026918272 0.003207346 0.00067144766 -0.0033284177 0.0004293014 0.0013911121 -0.001231442 -0.0024349745 0.0024981932 0.004850554 -0.003638507 -9.549832e-05 -0.0013072616 -0.0032032712 -0.0006834915 -0.0025983893 0.004517785 -0.0028831298 0.0018368182
of -0.00010827309 0.0020941566 0.0010507486 0.0050047343 0.00031819672 -0.0027388823 -0.0005740493 0.0010490204 -0.001692165 -0.003916017 -0.002803263 -0.0033851403 0.0031720444 0.0019701084 0.0040951767 0.0032545584 -0.00305972 0.0013665673 0.004233577 0.0007761179 0.0015438615 0.0028943315 -0.00440767 0.0045631113 0.0034094052 0.0042532817 -0.004110995 0.0030864808 0.0033020126 -0.0006810362 -0.0031421108 0.0026756455 -0.003412089 -0.0026594647 0.0017508634 0.0040460806 0.0043472582 -0.0022120958 -0.0045957826 0.0047901967 0.0031398467 -0.0019861134 -0.0042314227 -0.0023672169 -0.0019687393 -0.001641726 0.00040105215 -0.00015755492 -0.0015497691 -0.0029921788 0.004713003 -0.0023743974 -0.0036286642 0.0038384225 0.0012658851 0.004314526 -0.0022310603 -0.0034594857 0.00047763527 -0.0005906839 -0.004705676 -0.0008107574 0.0015297347 0.0032779546 0.0034051382 0.0016167792 -0.0022264067 -0.00090083975 -0.001984028 0.0029043239 -0.003184401 0.0010556456 -0.0006720364 -0.0029047888 -0.0036078177 0.002922155 -0.004163499 -0.00034733032 0.0014098452 0.0038651824 -0.0036454184 0.0016489696 0.004887811 -0.0034671787 -0.0017818004 0.0025544658 0.0026344392 0.00081536436 0.0039854734 0.00041784832 0.00094631605 -0.0007984729 -0.0040709157 0.0016402723 0.0009973889 -0.004368308 -0.0003348216 3.7642923e-05 -4.457111e-06 0.0043596723 -0.0012503332 -0.0029370754 0.0037473051 -0.0036317073 -0.0044833235 -0.0009097728 -0.0041759363 0.00019904146 0.0009713327 -0.0012493689 -0.0032194282 -0.00017373628 -0.00054334453 0.0017529393 0.0040698755 0.0029170853 0.004227893 -0.0044975667 0.004710311 -0.0011984063 0.004347974 0.0012037315 0.0017901515 -0.004806184 -0.0047457116 0.0045015113 -0.0014703029 0.0014081066 0.0032033806 -0.00015051139 0.004858482 -0.00051721925 -0.0048346645 -0.0035416437 -0.00053207146 -0.0043351674 0.003705195 0.0018069175 -0.0043802387 0.004234607 0.0044711027 0.0029113523 0.0034430895 -0.0047816527 0.0002501251 -0.0046115513 -0.0018358955 0.0001243623 -0.00013394225 0.0007415292 0.001636852 0.0010515599 0.002667489 0.0037588952 -0.0029583347 0.0039927512 0.002993451 0.004902446 0.0023023612 -0.0016500234 -0.0018601057 -0.00031825967 -0.0008275538 0.004947883 0.0005684012 0.002016277 0.0017103378 -0.004422028 0.0033530623 0.004103553 -0.0008267788 0.0011702451 -0.0032281026 -0.0030643414 0.004115741 -0.0015234206 0.003359014 0.0007857255 -0.0009816918 0.0015240766 -0.0020189618 -0.0008868469 0.00068209495 0.0024437571 -0.0006977455 0.00032984235 -0.0039464263 0.0047581536 -0.004366631 0.0035298076 0.001971721 -0.0034894624 -0.0026602303 -0.003974349 -0.0025755735 0.0035450787 0.004829488 0.0010754353 0.00031574292 0.0047565857
food -0.0024895526 -0.0006538215 0.0016442526 -0.0032042232 -0.0048530097 -0.0046399296 0.0045351577 0.0027083396 -0.0024039014 -0.004170909 0.000640445 0.001426258 -0.0006227555 0.0006342711 -0.0021711022 0.0024002702 0.0007428957 0.0044401777 -0.0049961433 -0.0026635604 -0.0045464355 -0.00017742898 -0.0039258064 0.0025101854 -0.0031993168 -0.0029797691 0.002541007 -0.004095084 0.0007148214 -0.0036308418 0.0049297586 0.0043331548 0.0008985327 0.0028961503 0.0022996152 -0.0029903657 0.0048849694 -0.004859676 0.004024076 0.0013629295 -0.0015306295 -0.0017797657 0.004532402 -0.0027304362 0.004122435 -0.0030037162 0.0041883127 -0.00028021177 0.0039745667 -0.0015815754 0.002997016 0.0043917587 0.0012788741 0.00065746554 0.0025242744 0.003996394 0.0042831064 0.004230877 0.003518849 0.0040065935 0.0042909677 -1.3516011e-05 -0.0004937877 0.0008280845 -1.5712738e-05 0.00035949398 -0.004307914 -0.0047729756 -0.0011778018 0.004486183 -0.0018335127 -0.0034751464 0.002447063 0.0005271971 0.00094427925 0.0018175773 0.0017711484 0.0028498943 0.000608297 0.0004114422 0.004525281 0.0013797336 -0.0023627235 0.0032936444 0.0026002072 0.0014268671 -0.0015546443 0.0016698628 0.003185934 0.0035446675 0.00048659684 -0.004255485 0.00015478376 0.00020174035 0.0019998995 -0.0047389767 0.0048564305 -0.0034869278 0.0028804394 -0.0047006607 0.0048254384 0.0036792564 0.0006336554 -0.0017020976 -0.0002308445 0.00018628796 -0.0032013222 0.0028847323 0.001170262 0.0018829878 -0.0036297548 0.0042510843 0.00025980675 -9.3275594e-05 -0.004530909 0.002013043 0.0033815093 0.00367067 -0.0032098966 -0.0039483705 -0.002757721 -0.00029476572 -0.004181335 -0.0041321917 -0.0009692208 0.0005808741 -0.0047676875 -0.0018674264 0.00031563238 0.0034100446 0.0008734294 -0.00031603265 -0.0037425035 -0.003374886 -0.00035767615 0.0037419924 0.0027247125 -0.0007390461 0.00058458856 -0.0048079705 -0.0006685023 -0.0023202589 0.0028930227 -0.0011655287 -0.0023838365 -0.004733013 -0.0006087094 -0.0035949242 -0.0008224549 -0.0020436423 -0.0011895498 -0.0016425134 -0.00406732 -0.0006269456 0.00083118316 -0.0020150193 -0.0038249851 -0.0017807272 -0.0045332955 -0.00036060187 0.0029527284 -0.0014765281 0.0015829 0.0025102983 0.0042515243 0.0028259268 0.0047627273 -0.0048255315 -0.0039861714 -0.0033766888 -0.003738951 -0.0039799805 -0.0038883914 -0.0014771273 0.0007157165 -0.0014315923 -0.004421332 0.0025096685 0.00046871035 0.0022875327 0.003596616 0.0038337081 -0.00041219144 0.0018326945 -0.0025733628 0.0009491636 0.0022883958 0.0049531558 -0.0015718334 0.0014246544 -0.0028529407 -0.0010813234 0.004044743 -0.0019618042 -0.0006003824 -0.00464392 -0.004728223 0.004438352 -0.0028403099 0.002527704
not -0.0034529013 -0.001309449 -0.0040605264 0.0037973884 0.0030685824 0.0026091626 0.004293369 -0.0002726538 -0.004691232 0.004610737 -0.0024895698 0.003888431 0.0027544433 -0.00052156555 -0.0039151376 -0.0007552715 0.003144778 -0.0034602464 0.0006903687 -0.004115011 0.004410681 -0.001482242 0.004799962 -0.0028699085 -0.004850308 -0.004345586 -0.0020235192 0.00231102 -0.00019537454 0.0045772856 0.0015859791 0.0019482819 0.0016193682 0.0040864013 -0.0011984786 0.0037364163 -0.0047825943 0.0014043847 -0.00035201586 0.00015492273 0.0034075503 -0.0014200768 -0.0012027548 -9.888787e-05 -0.00016403015 -0.001814679 0.0030593746 -0.0033108294 0.0039781895 -3.1594343e-05 0.0013278287 0.0015695262 -0.00012792648 0.00085983623 -0.0015265603 0.002372072 0.00012751893 -0.001703615 -0.004443116 -0.0050175483 0.00010583388 -0.0029157132 -0.00052331033 -0.002141527 -0.004442426 0.00059251906 0.0029206187 -0.0010104189 -0.0036753495 0.0016845397 -0.00023669665 -0.0027131785 -0.0005463038 -0.00030611397 -0.0015099418 -0.005022002 0.0039206953 0.0018116902 -0.001303535 0.0036192543 0.00023249774 0.0035624097 -0.0008405774 0.0038460228 -0.00010315274 -0.0031238452 -0.0022639951 0.0048357425 0.00027472686 0.00053740287 0.004266821 -0.0031196019 -0.0008083824 -0.004028154 -0.0032343168 -0.0043074368 0.0019913295 0.0013729013 0.0027876259 0.0013209729 0.0010495548 0.0029321308 -0.0010286169 0.0015791021 0.00421895 9.210086e-05 0.0031732942 -0.003329116 0.0032533726 0.0022803524 0.0025658638 -0.0050636013 -0.00018371413 0.0016540508 -0.0028974114 -0.003410822 0.0032218213 -0.0034809907 -0.0026189974 0.003981946 -0.0035118724 0.0043207617 0.0003097715 0.0021039934 -0.0015194457 -0.0026701705 -0.004571502 -0.00029838184 -0.002584382 -0.0015527267 0.004083147 -0.0038400642 -0.0031343356 -0.002694212 -0.0033697337 -0.0044077677 -0.0005712612 0.0047042374 0.003996673 -0.0026724036 -0.004003058 -0.0011797315 -0.004726749 -0.0025362747 -0.0029592016 0.0015101222 -0.0037918885 0.0006267138 0.001186869 0.0026631423 -0.0009968954 -0.004940166 0.0026570084 -0.0029357169 0.0023517306 0.0010465839 0.004407926 0.00081461045 -0.0009579694 0.0033299318 -0.0034712711 -0.0041873557 0.0019001407 -0.0012307363 -0.0020567416 -0.00089264853 -0.00494898 0.00012663084 -0.00055116834 -0.0014520176 0.0012693815 0.0023568638 0.0032290458 -0.003962688 -0.0024529104 -0.0044088704 -0.004531898 -0.0018283036 -0.00058254827 -0.0041179573 -0.0027246836 -0.0010553326 0.0031277726 0.00077608606 0.0041546687 -0.0041575334 -0.0021902216 -0.0003424653 0.004489974 0.0005551564 0.000848984 0.0007217867 0.0013806613 -0.004731937 0.0015982604 0.0027736176 0.002673709 0.0022109759 -0.0040281713 -0.002064931
any 0.0041844575 -0.00031602744 -0.0047405516 0.0023967118 -0.0030184009 0.003335698 0.0027069945 -0.002497393 0.0012799993 0.0027305344 -0.0018035844 -0.0007728664 0.0045749936 0.0045321235 -0.004717918 0.0037741861 0.0049467515 -0.0014159278 0.0012161535 -0.0014435699 0.0043353653 -0.0001626731 0.002843555 0.0046062344 0.002054911 -0.003571027 -0.00095078716 0.00048036993 0.0009969275 0.001473976 0.004728029 0.0022229955 0.0049969857 -0.0043302095 -0.002874948 0.0009978052 0.001821762 -0.0005176565 -0.0034583565 -0.0016250795 -0.0042700744 0.004707727 0.00185031 -0.003961246 0.001621853 0.0020745345 -0.0028428368 -0.0029633301 0.00053370756 0.004483027 -0.0048143906 -1.1655532e-05 -0.0034235462 -0.00046150858 0.0015353477 -0.0025137344 -0.0013929463 0.0003214084 -0.0032036447 0.0036437905 0.002171857 -0.004289256 -0.0010692775 0.0015688713 -0.004199839 -0.0035123199 -0.004232084 -0.0027139836 0.004404408 0.0035793043 0.0014273443 -0.0042677457 0.0028692547 0.002314637 8.082696e-05 -0.004430755 -0.00090088934 7.48793e-05 -0.0038863628 0.0012209553 0.000239725 -0.0035336488 -0.0041561844 0.0030492314 -0.004200334 -0.0028188028 0.00281124 -0.00023233851 -0.0015300352 -0.0025963658 -0.00058608287 0.0026435943 -0.0029472625 -0.002466227 -0.0024429406 -0.002386246 -0.0039778524 -0.004878165 0.0037840274 0.004008815 -0.0021495728 -0.0046331333 -0.0009327154 -0.0018601947 0.004544725 0.0014408594 -0.0029793377 -0.0016631028 -0.0049633854 0.00094997033 -0.001982256 -0.0013855749 0.002596642 0.003816599 0.0022028298 -0.0034369754 0.0033561948 -0.0048337104 -0.0035002914 -0.0040231342 -0.0011377985 0.00025253915 -0.0018928351 0.000893096 0.0045944625 0.0033537415 -0.00055766845 0.0045443946 0.0007749997 -0.0009949489 -0.0032911338 0.0032263063 -0.0045218808 -0.0009678894 0.0038258028 -0.0012970167 0.0008014084 -0.0036805158 0.0024856024 0.0036693793 -0.0046370486 -0.001649888 0.0039160927 0.0014663936 1.1119943e-05 0.00016663212 -0.0049306285 0.0049667843 -0.0009869877 -0.0024453977 0.0013753334 0.0004937896 -0.0029515282 0.0029070163 -0.0012816291 -0.0030720197 0.0036248935 0.0032394358 0.0043908427 0.00060403 0.0002752034 -0.003957407 0.0023295754 0.0046991524 -0.0003300748 -0.0008551358 -0.0019109464 -0.0002498169 -0.0038190698 0.0028557829 0.0007469537 0.0046521774 -0.0031919647 -0.0025407788 -0.0031018648 -0.003643145 0.001358414 0.0024657403 0.00068717985 0.0017641169 -0.004698888 -0.00052822573 -0.003882845 0.0014697638 -0.0013455417 0.0044428534 -0.0016829815 0.0034408777 0.0020845474 0.0006842272 7.037798e-06 0.004114857 0.0011487053 0.0041131284 0.0016584755 0.0027334767 0.0025600805 -0.003821792 -0.0028867556 0.00060744426
many 9.3710834e-05 0.0010738801 0.00053288124 0.0037989586 -0.0022059295 0.00016279164 0.0035063708 0.0011331656 0.002115738 0.0021516802 -0.0006325416 -0.004163794 0.0015211486 -0.0044399137 -0.0013262087 -0.004698348 -0.0002365526 -0.0039351014 0.0037003509 -0.0024607931 0.0049612233 -0.0045097577 -0.0021465227 0.0009654114 -0.0014975064 0.0007235179 -0.0018465909 -0.00045001353 -0.002872923 -0.0049156253 0.0031643447 0.00019159207 0.0032635415 -0.0037426087 0.0018261793 -0.004939875 0.003805084 0.00295705 -0.0030613074 0.00410273 -0.0027963433 -0.004269528 0.00074431516 0.0015938124 -0.004036084 -0.0044727265 0.004583595 0.0008255099 0.00043942707 0.0012411922 -0.0017507925 0.0008637927 0.0009774253 0.004900592 -0.0027886361 0.0011339119 0.003153994 -0.0033466553 -0.004471424 0.004324321 0.003411115 -0.0020086272 0.002873926 0.000387113 -0.0025142957 -0.00067184254 -0.0024494466 0.0030809345 0.0009718822 -0.0041531706 -8.483753e-05 -0.0013164255 0.003303648 -0.00056870375 0.0038362404 0.0009814979 -0.0019195375 0.0040708 0.0014681122 -0.0019987656 -0.0027954986 -0.0015521703 -0.0025721733 0.0017281462 -0.004646625 -0.0029071777 0.0016772668 9.812742e-05 0.0029965 -0.0017866209 -3.7892016e-07 0.0012434009 0.0027402444 0.00081417325 0.0049259774 0.0018668526 -0.003591949 -0.00069648225 -0.00418095 -0.0026691905 -0.0011016673 -0.0048554204 0.004649295 0.001013577 -0.0005837033 -0.002766011 -0.0042456216 -0.004945761 0.004464735 -0.0012542112 0.0022947523 -0.0022617455 0.004976257 0.0018190154 0.0005205667 -0.0020199083 0.00060282 -0.0013317168 0.0036749006 0.0022302808 0.00049421564 0.0017483374 0.001856722 -0.0033987765 0.0044748206 0.00087275443 -0.0029028628 0.0043292916 -0.0006483635 0.0040902672 -0.00074652536 0.0034940306 0.0013659887 -0.0021795828 -0.0018770936 0.004605786 0.0007971644 -0.0029985935 0.00017678681 -0.0009861449 0.000804737 -0.0038684078 0.003683408 0.00065214373 0.003939532 0.0022320868 -0.0022002233 0.0018844111 -0.0003190556 -0.004926678 0.00411938 0.0048230304 0.0048273313 -0.0018954133 -0.004231115 0.002413916 -0.0038300788 0.0042740414 0.0013751504 0.0028103918 0.003058691 0.00023929804 -0.0010482187 0.00037947917 0.0049240175 -0.003549907 -0.0007666811 -0.0011825392 0.0024299668 0.003232881 -0.0020668036 0.0018175443 -0.0022358035 0.0016402723 0.0040860833 0.0018129332 -0.0022944908 -0.0015023804 0.00394339 0.004804648 0.0029102238 -0.001641521 -0.0009196002 -0.0031280424 -0.0021537598 0.0016893421 -0.0032393362 -0.0033049705 0.0040658317 0.0047484757 0.0040718024 0.0007604397 -0.0043976465 -0.0037981498 0.0007809159 -0.0047715604 -0.0036985998 0.0010037766 -0.0014557741 -0.004578726
with 0.0032105732 -0.004518855 -0.0036854416 -0.00086815597 0.0008502569 -0.0005404667 -0.0025519887 0.0033444408 0.0043611964 -0.0036901892 0.0048767007 0.0036496643 -0.0037346878 -0.0009415054 0.0021052707 0.0035263319 -0.0018328782 -0.0034695612 0.002328444 -0.004605581 -0.0029034873 -0.0006659347 0.0027692977 -0.0028436896 0.0023835988 -0.00023657395 0.0013530295 0.0031663917 0.0006752225 0.0038350644 -0.00015176082 -0.0040894947 0.0046489057 -0.0024306036 0.002360995 -0.0019338467 -0.0036590963 -0.0032973525 0.002337638 -0.0003711313 0.0007113861 -0.004454278 -0.0025862704 -0.0030512693 0.004276684 -0.004360895 0.0024872578 -0.00043850747 0.000121149445 0.004393326 -0.001776698 -0.0034915297 0.00040506214 0.003862417 0.004590254 -0.0018479516 0.0013610402 0.0024289156 -0.0026720315 0.0034293619 -0.0032499009 0.0010435667 0.0023012392 0.0021686254 -0.0023913784 0.0013622544 0.003639057 0.0043807128 -0.004817246 0.0028650968 0.0024466594 -0.00077194767 0.004604312 -0.0020949733 -0.00082946324 -0.0034466612 -0.0018402988 8.707349e-05 -0.0016607232 -0.0027377426 0.0032930465 -0.0026781915 -0.0032009135 0.0038780593 0.004800159 0.0019605542 4.9733022e-05 0.00040874688 -0.00046992695 0.003446713 -0.003094125 0.00027062566 0.002208628 -0.0010120147 0.0005198862 0.001850458 0.0048688413 0.0010884199 0.00475799 -0.0028954516 0.0024002679 -0.0017626078 -0.0021194746 0.00060146785 -0.0020771846 -0.002880361 0.0015949464 0.004203686 -0.0033039686 -0.0045967884 -0.0016581075 0.003721295 -0.0048365006 0.0048144367 -0.00019733743 0.0011213758 -0.00091636926 -0.0029144767 0.0015361643 0.003040145 -0.0035342805 -0.0005616547 0.0007559846 0.0020766153 0.0035583426 -0.0017420761 0.003586756 -0.00279035 -0.0011161754 0.0045443317 0.002705547 -0.0042472524 -0.0008261551 -0.0044453014 -0.0008591483 0.002841781 -0.0037101023 0.0027580468 0.0030465282 -0.0019210437 -0.004776441 -0.0012851655 -0.0013143924 0.0018740521 0.0044624535 0.0009919589 -0.0010672488 0.0014937577 -0.003363198 -0.00064614037 -0.00075387716 0.0047616856 -0.0028832117 -0.0035091406 0.001140152 0.0013378983 -0.0035815577 -0.0029135114 -0.0006264688 -0.0016119411 -0.004451912 -0.0020133378 -0.0014648272 0.0032778287 0.00052137853 0.0008477329 0.00015689796 -0.0017085494 0.0015282976 0.0003648617 0.0029879904 -0.00037630537 -0.004422913 0.00043757795 0.0049943062 -0.0026192327 -0.0026581367 -0.0012152244 0.0043330896 -0.00042438347 0.004708813 -0.0041398047 0.0044835107 -0.004856327 0.0045824135 0.00092303695 0.0013887133 -0.0028864674 0.0042778905 0.0030246184 -0.002703981 -0.0046903165 0.00343986 -0.0027867886 -0.004672192 0.0013106071 -0.002472963 -0.0036916633 0.0048800586 -0.00079445343
i -0.0007531511 -0.0020351468 -0.0022102336 -0.002315725 -0.0027962346 -0.0026622887 -0.0039785393 0.0047964295 0.0031952031 -0.0018025842 0.0012360493 -0.003837322 0.0037522186 0.0041487846 0.00037431435 -0.0034219963 -0.0014645468 0.0023731312 -0.0014892865 0.0015492816 0.0047210595 0.00216636 -0.0025607292 0.0027265907 -0.0014432204 -0.003215805 0.0035181555 -0.0046458924 -0.000578491 -0.0007046473 -0.0042118444 -0.00053283013 0.002828046 -0.0026393456 -0.0035113564 0.0030957765 -0.0017019078 -0.0039342237 0.00015467279 -3.9134247e-05 0.0037697614 0.00028841762 0.003940202 -0.0049267034 0.002054945 0.003102951 0.00049599254 -0.0014163721 0.00053020945 -0.0004220112 -0.0040403814 -0.003404422 0.00061229785 -0.0010108417 0.0047806655 -0.00047257828 0.0030671388 0.0010066184 0.0040376475 -0.004637508 0.001185701 -0.0007269398 0.0010863018 -0.00012275498 -0.0033433326 0.004554476 -0.0014330551 0.0009889671 -0.0032516748 0.001888652 0.0049780887 -0.00058703136 0.0033008012 -7.630616e-05 0.0039869575 0.00480965 -0.00016457237 -0.0008642582 -0.0047784606 0.004918136 -0.0012684852 0.0010888969 -0.00086933386 0.004197375 0.004157936 0.0007543588 0.001461612 0.0032195013 0.0011264733 0.0032262723 9.726346e-05 -0.0011382992 0.0026894435 -0.0016851872 -0.0012644181 0.0043842024 -0.00457273 -0.0017086879 -0.001463719 0.002847241 0.003965181 -0.0031931198 0.0029027776 -0.00010509459 -0.0045191864 -0.0012554 -0.000792096 -0.0022208893 -0.00041842245 -0.0026344757 0.0029759104 0.004625217 -0.00078717794 0.0017047728 -0.0003677049 -0.0003683748 -0.0035028802 0.0007216049 0.0019453452 0.0034306573 0.003263229 0.001776721 0.0023168784 -0.0037408709 -0.0007108348 -0.0028766906 0.0033711246 0.0039125863 -0.0021393686 0.0005776101 0.0025611967 0.0008986827 0.00039310945 -0.00338584 0.004896846 -0.0036228998 -0.0030075698 -0.0028335503 -0.0031740156 -0.0017590254 -0.0046701524 0.0005733119 -0.0018971808 -0.0012719162 0.0028894776 0.0017762523 0.0009002595 -0.0006944695 0.0049572694 0.00013126672 0.0025010721 0.0044928836 -0.0048723426 -0.0045702187 0.0049451333 0.0013763331 -0.0009362298 0.0023710374 -0.0021683036 -0.003168286 -0.004111489 0.0036096713 -0.0012228786 -0.003756414 -0.0029330703 0.003110835 -0.0012283223 -0.0030809816 -0.00082036696 -0.0007300698 -0.0016357753 -0.0010460924 0.0020705576 0.0007231199 -0.001725157 0.0013426957 0.0025879748 -0.0045727193 -0.0037575923 0.0031309668 -0.004474381 0.00028080135 -0.0045081847 0.0041900794 -0.002159801 -0.0033109658 -0.00066760875 -0.00053978246 0.0038009079 0.004564765 -0.00015357225 0.0013756936 0.0023435904 5.3371827e-05 -0.0028983443 -0.0002867818 0.0010997243 0.004146247 -0.0017883958 -0.004920256
longer 0.0027163865 0.004840063 -0.0035627123 -0.00026729886 -0.0025240574 0.0032036372 0.004891465 -0.00010840763 0.0025468965 0.0033081488 0.002176477 -0.0040447987 0.0015446927 -0.0007351761 -0.001134797 0.00268089 -0.0006621442 0.00498126 -0.00033834964 2.7613693e-05 -0.0011102053 -0.004298336 -0.004835413 0.0024759683 -0.003307554 0.001467976 0.0013987968 -0.003521911 -0.0016201936 -0.0029146445 -0.0042670094 7.061007e-05 0.0049890666 -0.0033311036 -0.002180982 0.0041897795 0.0046284464 0.004864087 -0.004956244 0.0024774533 -0.0033420832 0.0034425894 0.0030486095 -0.0017101621 0.0034993496 -0.0039693196 0.0022376918 0.0022600393 0.0029885885 0.0029498085 -0.0013036038 0.0019130287 -0.0030497038 -0.0032304986 0.0014174221 -0.004734358 -0.00015395081 0.000499789 0.0039457656 -0.0035037352 -0.0011979898 -0.0020923282 -0.0026018987 -0.00025973382 0.002218024 -0.0024520955 -0.0008405921 0.004408039 -0.0007142512 -0.0016961367 0.0036775442 0.0006376986 -0.00016352732 0.0047496385 0.0041174823 0.0016965774 0.001762722 -0.0011889937 0.00402334 0.0025027138 -0.0027070998 -0.0030723945 -0.0003589579 -0.0038889335 0.0016169077 -0.004680867 -0.0007105713 0.0017001012 0.0015178773 0.0015962076 -0.0044941558 0.0017267918 0.002725591 0.0017879931 0.0039721797 0.00082472374 0.0031599952 0.0044283615 -0.00047867929 -0.00038467257 0.0011113094 -0.0037079027 0.002829149 -0.0025254358 -0.0016333578 -0.0009899337 0.004146094 0.0011542467 -0.00046834233 -0.0014798114 -0.001037132 -0.00071620714 -0.0025285452 -0.0020413895 0.000117379546 0.0022300477 0.00092482724 0.0033988685 0.00029212094 -0.0016658625 -0.0036918821 0.0030481964 0.0034788135 -0.003109854 0.0023459452 0.0047816746 -0.0032774445 -0.0014486568 -0.00457443 0.0015953982 -0.0017036308 0.0010131494 0.0047424003 -0.00422831 -0.004700676 0.00087219564 -0.004033382 -0.0045322934 -0.0046954034 -0.00017833675 -0.0005167537 0.00033620602 -0.0007286229 0.004516818 0.004400971 -0.0031854324 0.004349574 -0.0045061046 -0.0006417298 0.0012825293 -5.4031105e-05 -0.0019454472 0.00026384066 0.0005241001 -0.0047740242 -0.0023947807 -0.0038539416 0.0019367019 -0.0004774826 -0.003682826 0.0028715148 0.00012887928 0.0013617262 0.0027565246 -0.0020921126 0.003979667 -0.0039341147 -0.0017268852 -0.0037112804 0.00051309745 -0.0036832874 0.0045499974 0.0028104817 -0.0036170166 0.0031200787 0.0032932 -0.00375803 0.0023602522 -0.003821269 0.0046572736 0.0023295046 -0.00010023785 -0.004503569 -0.00045550647 -0.00013049094 0.00046578704 0.0044102566 -0.0013374118 -0.004276624 -0.0044324785 -0.00046947453 0.00074220164 -1.3453383e-05 -0.0011274047 0.0042403876 7.655054e-05 0.003232031 0.0019841252 -0.0035926478 -0.0010859803
previous -0.0038662732 -0.003418576 -0.0015992731 0.0033275387 -0.0004046382 0.0044345404 -0.0010957917 -0.0026040792 0.00193692 0.001135815 -0.00016162058 -0.0012635409 -0.003006733 0.0020326837 -0.003843094 -0.0044705933 -0.004581109 0.004210741 0.0019812474 0.0034629842 0.004974995 -0.0036445206 0.0020607973 0.0014056877 0.0030704506 -0.001706904 0.0046677217 -0.0029235107 0.0034799627 0.0034682786 -0.00018619432 0.0025644545 0.0033937476 0.00076820963 0.0036707832 0.0012215626 -0.0007697104 0.0036775863 0.0023306715 -0.0016188725 0.00080624444 -5.8653128e-05 0.0024713594 -0.0027180687 -0.0020431841 -0.0004890158 0.0018816118 -0.003309948 0.0039401134 -0.0015321616 0.0028929615 0.0014000279 0.003417803 -0.002243862 -0.0015694627 0.0015186156 -0.0013876397 0.0029381283 -0.003027655 0.0012914842 -0.0003949949 -0.00033220215 0.0012794723 -0.001108901 -0.002189439 -0.0042481422 0.001235279 0.002725705 -0.002986481 0.0046161558 0.0019958406 -0.002561785 -0.0006445922 0.00197314 -0.0034608827 0.0010106083 0.0028192797 0.0030954066 0.002692376 0.0018110663 -0.0013725504 -0.0030591446 0.0040399577 -0.0036065043 -0.0008540324 -0.0016834254 0.0032984563 -0.0031170712 0.0016919513 0.0010381785 -0.0020136149 -0.0041010575 -0.0039739283 0.0017942277 -0.00471703 0.002849641 -0.0014388628 -0.0045704483 -0.002569849 0.003899634 -0.000868359 0.0032462 -0.004613994 -0.004583878 -0.0026107624 0.00042560365 -0.0035612134 -0.004703137 -0.004465078 -0.00026753452 0.0037167382 -0.0042499513 -0.0026615588 0.00077633525 0.0016676362 -0.004259877 0.0039565046 -0.0041501555 0.002344795 0.0046604797 0.002825736 0.0031271477 0.0041108737 0.0016660317 -0.003572795 0.0029155372 -0.0042213514 -0.0028619422 0.0029263294 -0.0039752442 -0.0029252816 -0.0017860463 0.001709484 0.002565507 0.0009878543 0.002561882 -0.0013284355 0.0021735379 -0.0035377874 -0.0008524805 -0.0038391857 4.871993e-05 0.0023051782 0.0024065326 -0.0023136323 0.00087115576 0.0039032875 -0.0027892808 -0.0018740374 -0.0002938929 -0.0023632012 0.004315054 0.0037966375 0.004628593 0.004631011 -0.004196365 -0.00024129519 -0.0037689041 -0.0024337145 -0.004371995 0.001745678 5.7456855e-05 -0.0034493725 0.0040154126 0.00050359144 0.0001871225 -0.0017869237 -0.0016686422 -0.0013390422 0.0038343046 0.0012023984 -0.0025704908 0.0023963605 0.00048425363 -0.00133299 0.0038522154 -0.0020202503 0.0037462376 -0.002073482 -0.0036861452 -0.0022698927 -0.0019387437 -0.00037674097 -0.00092493335 0.0025588365 0.002727645 -0.0008106735 0.0019105918 -0.000962955 0.00035713558 -0.00064343016 -0.0011881418 -0.002397451 -0.002149493 3.7760456e-05 0.0008476615 -0.004700787 0.0030344531 -0.0008309192 -0.0014939173
but -0.0023778765 -0.0022064298 -0.002416837 -0.0048767813 -0.00037718026 -0.0039098845 -0.0023713696 -0.0036476194 0.004954072 -0.0006461641 -0.003893033 0.0027296436 -0.004042178 -0.0009433401 0.0013399833 -0.0035516429 -0.0043648453 -0.0033147093 0.0037223927 0.0044501307 0.0020119837 0.001174563 0.0021069595 -0.002033146 0.0048769503 0.0034404558 0.0020606993 0.004462506 -0.0042397985 0.00045531063 0.0044652345 -0.0004320027 -0.0033069667 -0.001126928 -0.001401938 -0.0012307393 -0.00093460584 0.0036098496 -0.00016226011 0.002081724 -0.0018920319 0.0041178092 -0.0032655904 -0.004686823 -0.002025461 -0.0036939625 -0.0024697767 0.00022869387 0.0012007697 0.0008785835 0.002518793 -0.0007265555 0.0011489608 0.00017603081 0.0039502643 0.0040071695 -0.0009856578 0.0005918387 -0.0030626697 -0.002385771 -0.0035194296 -1.8344677e-05 -0.0024426666 -0.0020377531 0.00068536185 0.0013407544 -0.004569859 0.00093282515 0.0025188238 0.0021395842 -0.0014805979 0.0047573494 0.0047212522 -6.94912e-06 0.00047438935 -0.0046339147 -0.0023561835 -7.6001146e-05 0.002002512 5.4622058e-05 -0.0043581217 0.002890718 -0.003747642 0.004329339 0.0027188475 -0.003421362 0.0014707962 0.0038771166 -0.0030614757 -0.0032618467 0.0046192072 0.0009195672 0.0048917616 -0.0049128006 -0.00069697597 0.003447154 -0.0007178414 -0.0008659494 -0.0035522599 -0.0028121683 -0.0032617843 0.004496669 -0.000777623 -0.0041456264 0.003987193 -0.0015282686 -0.00064739696 -0.00032407118 0.0013989076 -0.0023868748 -0.000121001256 -0.0014636648 0.0044004554 0.0034552356 0.00056532456 -0.0030696783 0.0015816427 0.0005282671 -0.0030787897 -0.0029240714 -0.0015419248 0.0012234409 -0.004068842 -0.002542646 0.0040513296 -0.0018108457 0.003926449 0.0002690032 -0.0027788389 -0.0024841346 -9.703412e-05 0.0022931132 -0.0030189827 -0.0027815357 -0.0034322035 0.003375899 -0.0012107337 0.0019972203 -0.00082965876 -0.0037282726 -0.0005989405 0.00017303918 0.0017415063 -0.0043358398 -0.0033901779 -0.003285724 0.001494449 -0.0018643679 0.000533786 0.0020846294 0.0022564724 0.0011503145 -0.001411222 0.0003262408 -0.0027521001 -0.0031409997 0.004348845 -0.0019990955 -0.004690148 0.0019106315 0.00426547 -8.2631144e-05 0.0011443942 -0.0017419603 -0.0020702865 -0.0042710225 -0.003928098 -0.0045302548 -0.0029997518 0.004265483 0.0047258376 -0.00082489033 3.36455e-05 0.003919943 0.0006555353 -0.002576452 0.0012894977 0.00092590327 -0.0018293641 -0.0024439094 0.0048088133 0.0038216535 -0.004306346 -0.0027710302 0.0007055389 0.00045254576 -0.004114601 0.0046991333 -0.002646409 0.0022985667 0.0046614925 0.0005866097 0.0020666558 -0.0013722766 -0.004867013 0.00031847603 -0.00051599304 -0.004963302 0.0035140458 -0.003709095
be 0.0025810986 -0.0022834777 -0.0046197865 -0.0045008985 0.0031190692 -0.0026553033 0.0027124325 -0.00070890813 0.004819731 0.0036097467 0.004912443 0.004150374 -0.003943514 -0.0047716866 -0.0028413718 -0.00041765603 0.002521447 0.0018578471 -0.0010472252 0.002392058 -0.0016657712 -0.0034578124 0.0023945186 -0.004932749 0.00044631527 -0.002537619 0.0038160963 -0.0018979809 0.0013307645 -0.0031638092 0.0048249043 -0.0027205544 0.0018760031 0.0016348809 0.0044543324 -0.002758767 -0.0021798 -0.0031756945 0.0030710944 -0.0023554733 0.0023852629 -0.00044611076 0.0036086566 -0.0030609865 4.688028e-05 -6.583281e-05 -0.004322374 0.0043459306 -0.0010189265 0.003226172 6.994994e-05 0.0024713 0.0011349334 0.0044221366 -0.0041283052 0.004211585 0.004328934 0.0004617946 0.0021397965 0.0019129758 0.0019870761 -0.001488761 0.0014437924 0.0003421308 0.002315116 0.0042762114 -0.0039010001 0.00017292747 -0.0044454224 -0.0006783072 -0.0045567625 0.0016221048 -0.00078354497 -0.0003564959 0.0032979979 -0.0040740636 0.0006516101 -0.001250031 -0.001901164 -0.0036808725 -0.0039757015 0.0041160975 -0.0037899802 0.0025130264 -0.0019526335 -0.00066406647 0.0014894274 -0.0042699496 -0.0028195516 -0.0038461958 -0.0046505514 -0.0023367526 -0.0014970045 0.00031216923 -0.00023989257 -0.003955219 -0.0018828392 -0.0013776416 -0.003202365 -0.003149272 -0.001298653 -0.0038774875 -0.004097397 -0.0038043645 0.0017610905 -0.0038809585 -0.0018299556 0.0033588812 0.0036689 -0.0032465912 0.0034125366 -0.003954193 0.00010224357 0.0033452318 -0.0014057686 0.0045448523 -0.00013476053 0.0022839515 0.0034432625 -0.0043516266 -0.0030292072 -0.0036095488 -0.0006136758 -0.0036194676 4.1700478e-05 -0.0039715543 0.00017497633 -0.00019249773 0.003203256 -0.0044370443 -0.0015720441 0.0029409584 0.004625965 -0.0009482603 0.00033275044 -0.0030365274 0.0003985883 -0.0040889806 -0.0038359924 0.0006566276 3.0371251e-05 0.0027371238 -0.004941894 0.00082133146 0.0007946578 -0.002621057 2.095163e-05 0.0030356387 -0.0032484697 0.00014353919 0.0019474291 0.0007861749 0.0014580295 0.0040806187 0.0032581706 0.0018065805 0.003973913 -0.003773612 0.0037109477 0.0020199567 -0.0028871158 -0.0020864657 0.0032034968 0.0029591713 -0.0048777387 0.00069464237 -0.00018034782 0.00040319544 0.0035158594 -0.0035574452 0.0048284065 -0.004711299 0.003153397 0.0047349622 -0.0018678601 -0.0047000796 0.0030310405 -0.004427263 -0.0040849918 -0.00042463146 -0.003345521 0.0044010472 0.0038851546 0.00041379922 0.003977449 0.004915445 0.0027015228 0.002211552 0.0027671282 0.0032068517 0.0024520054 0.0032680058 -0.0038067217 0.0043912674 0.004100371 0.0047167954 -0.004463802 -0.0017360096 -0.00016243396 0.0020664656
used -0.0040890947 3.9188544e-05 0.0029848593 0.004809863 -0.0014135361 0.00089682196 0.0032370477 -0.00095454307 0.0009503254 -0.00463131 0.00033325155 0.0022637057 0.002247435 -0.0048580314 -0.0026223615 0.001467958 0.0008061397 -0.0023241458 0.002894943 0.0016672966 -0.0038779383 0.004877667 -0.0038058881 -0.0015314072 0.0048706923 0.00055301876 -0.002766285 0.00053200725 -0.0020940623 -0.0033958931 -0.0038628937 0.0024297952 -0.004443578 0.002043425 -0.0027696625 0.002743268 -0.0021931736 -0.0028205132 0.003170832 -0.0043662814 0.00065656536 -0.0010553023 -0.003362456 -0.0038536312 0.0034338008 -0.0022591208 0.0022699502 -0.0048556705 0.0009769037 -0.0009674472 -0.002933663 -0.0014255169 -0.0043181856 -0.0017458362 -0.0012586622 -0.0011431017 -0.0025545808 -0.0046412544 0.002621362 -0.0006728778 0.0030616124 0.0015032848 0.004292275 -0.0017819025 -0.004510688 0.0007077433 -0.0045116358 0.0030896342 0.004157997 0.00032322077 0.0038270683 0.0043077893 0.0021149334 0.0027249546 0.004618154 0.00055363507 -0.0040652337 -0.004198581 -0.0009140665 -0.00032787208 0.004419211 -0.004676218 -0.0013446829 0.0046274876 -0.0007725459 -0.004603441 0.0010717252 -0.0029039343 -0.0027421075 -0.003158855 9.953497e-05 0.0036333795 0.0021155833 0.004117582 0.0044916947 0.0022586847 -0.0030133675 0.0035391492 -0.0047643813 -0.0023707948 0.00400736 0.00400499 -0.0026934203 -0.0040057637 0.00403716 -0.001974916 -0.0020070658 0.0036238434 0.0026927807 0.001858498 -0.00059298665 0.004268871 0.004246578 0.0035127474 0.004535927 -0.0029255855 0.00052765105 -0.0008723071 0.0031479036 0.0048379777 0.0025812588 0.0020652588 0.003266291 0.0028768461 4.3141506e-05 -0.0041390453 -0.0011534494 0.0045384546 -0.002574228 0.00049142056 0.0024453977 -0.0034675105 0.0040973113 0.00068737584 0.0011627668 0.0041626235 0.00070883357 0.00043808995 -0.004738241 0.004911116 -0.0048979865 0.004240453 0.002471476 -2.7224934e-05 -0.0039291526 0.004675119 -0.0006947282 0.0026742879 -0.0014874586 -0.002438425 9.020764e-05 -0.0040547554 -0.003298218 -0.004719266 0.002623873 0.00024558508 -0.00045792732 0.0025900987 -0.0010111716 -0.0036461859 0.0014759153 -0.002991572 0.00025412312 0.0047796387 -0.0004536808 0.0031211104 0.0022322305 -0.0017725789 -0.0026377647 0.004447588 0.0010650873 -0.00020952473 0.0004884327 -0.0024704211 0.0017944395 -0.0015533468 0.0020536697 -0.0022497908 -0.00036435862 0.0019424798 -0.0036077406 -0.0012368383 -0.0043928022 0.00078170135 0.0010169169 0.0012009485 0.0006091054 9.25077e-05 0.001165462 -0.0004822418 0.0030121978 -0.0014232363 -0.0025989588 -0.0026849776 -0.004854187 -0.004035101 0.0010891566 0.0019850233 -0.0028859559 -0.0048579443
test -0.0030610734 0.0023001437 -0.0045472863 0.0025532115 0.0031825686 0.003047501 -0.0037852826 0.0014562354 -0.0027406923 0.0045373403 -0.0021754818 -0.0012010281 0.0026055283 -0.00040264364 0.0025219633 -0.0021185335 0.0024851935 -0.004888325 0.0030216223 -0.00067643763 -0.0027836754 -2.512113e-05 -0.0005817872 -0.00035410342 -0.00088109577 -0.0046366854 -0.0038997922 -0.003412399 -0.004342074 -0.0022757768 0.004598895 -0.00088271836 -0.0037525857 -0.002950362 0.0017950413 -0.0013476114 -0.00078128197 -0.0021515822 0.0029730408 -0.0039414195 -0.0037660673 0.003762743 -0.003487923 0.0010713848 0.00021954677 0.0048224577 0.002100391 0.0010184598 0.0013922523 0.0011589385 0.0011104989 -0.0013834283 0.0020478342 0.0030454427 0.004500297 -0.0003791118 -0.00060739595 0.0032053238 -0.004262505 -0.00032685217 -0.0033569448 0.0023732712 -0.0044671786 0.0016133897 0.0044565946 -0.0010134309 -0.004422812 -0.0040444112 0.0015958499 -0.0026251436 0.0032010165 -0.0005842014 0.003929865 -0.00024458804 -0.0030802097 -0.0028545402 0.0004277963 -0.0024109469 0.0032663161 -0.0017811618 -0.0028066093 0.0004672218 -0.0024698123 -0.004070682 -0.0026552211 -0.0009617657 0.0002491397 0.0018325894 0.0034334864 0.0033772448 0.002950139 0.00017157939 -0.0028765493 0.0045345468 -0.0002803576 0.0023558566 -0.0007011712 0.002906958 0.0026493752 -0.0036395483 -0.0013756675 8.291319e-05 0.0010327991 -0.00465376 0.0024189025 0.0016434209 -6.2659354e-05 -0.0017306557 -0.0038093969 0.0037660096 -0.0042960565 -0.0037268596 0.002233305 -0.0042466503 -0.0016250197 -0.0010659519 -0.00093991205 -0.003443175 0.002133365 0.00046476035 0.0018300986 -0.00063934625 0.0034538978 -0.0048126485 0.0029272581 -0.002541003 0.00080741965 -0.0034743857 -0.001256381 -0.003220635 -0.0016685849 0.004861528 0.0013519545 0.0007807013 -0.0030629921 0.00280053 -0.004070421 -0.0011486053 -0.0032353436 -0.0032109832 0.0011753452 -0.0016702487 0.0011908436 0.0019555413 -0.0031250336 -0.0008733135 -0.0013875043 -0.0048958426 -0.004899501 0.0005614454 0.0021857345 9.7281685e-05 -0.0024205435 0.0018221926 0.00080621924 -0.004685096 0.003586996 0.0039105876 -0.0038853053 -0.00034815824 0.0030440565 -0.0013831578 -0.00016865575 -0.0020952497 0.0030782288 0.003527163 0.0010440702 -0.0023518705 -0.00092404307 -0.0019848673 -0.004878417 0.003910123 -0.0002851055 -0.0003021066 0.0035639051 -0.004516485 0.0031388558 -0.0037650615 -0.002651803 0.0025440124 -0.0017520109 -0.0017372668 -0.0031741755 -0.0019586084 -0.0013372296 -0.0020405243 0.004769975 0.004749967 -0.00015243386 -0.00015531397 -0.0027937314 0.003985943 -0.0024959154 0.0029323068 0.0045320145 0.0028863924 -0.00045749708 0.002763696 0.0034792395 -0.0019467275
posts 0.00034382637 0.0032223111 0.0029220171 -8.261682e-05 0.001189922 -0.0032648484 -0.0046579246 -0.002448198 -0.0027045112 0.00030459283 -0.0019999172 -0.00020180427 0.0038133273 0.0048673344 0.003917878 0.0011887894 -0.001354915 0.0012223714 -0.0013613069 -0.004514209 0.0034591816 -0.004332633 0.0019156837 -0.0019776567 -0.0027758465 -0.00052763015 -0.0032794334 0.0042780587 -0.0034540663 -0.004486919 0.0028820445 0.0022497447 0.0023988273 0.0012103928 -0.0018679977 -0.002554875 0.00088465255 0.004155096 -0.0028271049 -0.0012065062 0.0009163714 0.0033664065 -0.00320517 -0.0022706015 -0.0012916172 0.00066364533 0.0026701994 0.0027645673 -0.004343864 0.003636732 -0.0012403728 -0.001434754 -0.0044223936 -0.002895984 0.004744714 0.0015411294 -0.0040210607 0.0013871609 -0.003557278 -0.0045264047 0.0019169812 0.0010058939 0.00062685483 0.0044150427 0.0031031426 -0.0025215275 0.0013550565 0.0013034649 0.001176673 0.0042032083 -0.0034740125 -0.0011438028 0.00051045965 0.0031902038 -0.0003102046 0.0039542597 -0.0022927073 -0.0045348397 -0.0035362728 -0.0020804899 0.0047937594 -0.0025699453 -0.002444073 0.0041085957 -0.003749016 0.000979688 0.0028784832 -0.0037553993 -0.00013086075 -0.0011754335 0.0027992637 -0.0022725905 -0.0032735236 0.004968392 -0.002277368 0.0037945083 -0.004217983 0.0035175227 -0.0016967253 -0.0038978406 -0.0005914136 -0.0011636937 -0.0008975094 -0.000591694 -0.0032587487 -0.0018025048 -0.001586311 0.0038763164 0.0029240323 -0.00046732114 -0.002405976 0.0026165976 -0.004418584 0.0008330952 0.0020152694 -0.000989072 -0.002257404 -0.004129796 -0.0041512763 0.0035423783 0.0018149501 -0.00017591071 0.0048437063 -0.004301833 0.00029256236 -0.00020770209 -0.0040654135 -0.004551487 0.003580917 -0.001825089 -0.0039461865 0.0039706184 -0.003120965 -0.0015723767 0.000867971 -0.0016680303 -0.0039864937 -0.0019609623 -0.00450601 0.00068523554 -0.0022875 -2.9442188e-05 0.0013421974 -0.001189551 0.004414928 0.003525229 -0.0002829522 -0.00031616326 0.0004401914 0.003376926 0.0044680503 -0.0009789196 -0.0007830679 -0.0014764501 0.00022986175 -0.0032171088 -0.0009336198 -0.0043074726 0.00031546087 0.00074432575 0.0018800293 -0.0014318305 0.0029643702 -0.0035282876 0.004922451 0.0002845274 0.0011518016 0.0021758256 0.00020456435 0.0013105206 0.0008083074 -0.004808259 -0.0015551914 -0.0012986243 -0.0046138987 0.0017181177 0.0023830147 -0.0010271173 0.0037277746 -0.0006070463 -0.00014426229 0.0029018426 -0.0042493423 -0.0034518335 0.003663194 -0.0032853293 0.00426166 0.0026933828 -0.0039972146 0.004192427 0.0031735878 -0.0033356068 -0.0042475914 -0.004425647 0.0018983447 0.0031811874 -0.0010575057 0.0006661405 -0.004189582 -0.0025629725
from 0.002358533 -0.0045634564 -0.0046330807 0.00051388005 -0.0042927386 -0.0034828775 0.0024070553 0.004030403 -0.0036863782 0.004072676 0.0046798424 0.0023387843 -0.0022110597 0.004838548 -0.003885971 -0.0019584515 0.00097631064 -0.0038081429 -0.004949417 0.0013791099 0.0041036718 -0.0025815594 -0.0021254478 0.001957101 0.00034362316 -0.0042765415 0.003289657 -0.001588758 0.0017578078 0.001561897 0.0044479724 0.0044017276 0.0037000135 -0.0041356813 0.0006033559 -0.0004744021 0.00043839237 0.004434598 0.0023823518 -0.0044873944 0.0048951777 -0.0004454022 0.00018526844 0.0024506226 -0.0030733794 -0.00021568329 0.0006732572 0.003514304 0.0021532192 -0.000964546 -0.0042207674 -0.001961319 0.0043983674 -0.004740819 0.00493996 -7.328673e-05 -0.00056707 0.004779355 0.004754293 0.004132321 0.0044796923 -0.005000782 0.0037602608 -0.0046971557 -0.0038885276 -0.004384218 0.0010663453 0.0036298041 -0.0031816552 -0.0013134335 -0.0011912165 -0.0022242698 -0.00065443217 0.0024278688 0.0018893451 -0.0016231532 -0.0018198192 -0.0011846405 -0.001621374 0.0019592582 0.0048699104 0.003920768 -0.0038103648 -0.0031815309 -0.0045958064 -0.0029912665 0.0018479443 -0.0030009928 0.00085380505 0.00445343 0.0016909349 0.00060591556 0.0044949814 0.00323673 -0.0006782792 -0.0031110959 -0.00051779766 0.0036300742 0.0037320664 -0.0020037151 0.004975042 0.0012375262 0.0025719472 -0.0028406903 0.0021785959 9.332714e-05 -0.004787886 0.0025497156 -0.0045195743 -0.0032582441 0.0014013335 0.0046153376 -0.0010442319 0.0035032125 0.0025446815 0.0020054725 -0.0030839485 0.0025125144 -0.004167512 -0.0021879086 0.0027238736 -0.004058253 0.0028602895 -0.0017846655 4.810654e-06 -0.0036468434 -0.0031629556 -0.0016569105 0.004292354 0.002676172 -0.0048515396 -0.0032883391 0.0017254065 -0.0042831968 0.0033049649 0.0030772581 -0.004656839 0.0043152627 0.0039075236 -0.0009146365 0.000915045 -0.002865005 0.0030795883 0.0038541777 0.0020274294 -0.0044310302 0.0024725045 -0.0015373726 -0.0010816624 0.0030514374 0.00092246383 0.0022861694 -0.003123009 0.0026213424 -0.0018087635 -0.00017441588 0.0031094323 0.0020600301 0.0037084722 -0.0019304764 0.00180415 0.0036590649 -0.0016423624 0.0029095525 -0.004684087 0.004459337 0.0018788106 0.0026507431 0.0023084849 0.002294367 -0.0016585741 -0.003095621 -0.0011191614 0.000689902 -0.0014523277 -0.0042456756 -0.0031660818 0.0041941945 0.0046984716 0.0029730313 -0.0020574315 0.0003572906 -0.0043060314 0.003325167 0.0002269956 0.0036853238 -0.0026384818 -0.0013979409 0.0014581333 0.0017299117 -0.0032365243 -0.0036523272 0.00097272 -0.004527367 0.0028804785 0.0027469876 -0.00189493 -0.0028271922 -0.0041590924 -0.0009590838
judging 0.0035010553 -0.00015184375 -0.003993286 0.004454038 -0.004273489 0.002759186 0.0032685406 0.00052017585 -0.0043561854 0.0031159734 -0.0039410787 -0.0025207254 0.004799783 -0.0041406825 -0.0038408842 -0.0024608294 0.0017351999 0.00095761917 -0.0027971456 -0.001704834 0.004310335 0.004859238 0.0049973517 0.0005165679 0.0020194026 0.0006705311 0.0008459729 0.002408161 0.001066443 0.00014189529 -0.0015670989 -0.0032238432 0.004055041 -0.0029762117 0.0013850492 -0.00045493283 -0.0018363765 -0.002507549 0.0016042843 -0.0029512497 -0.0037581078 -0.0013167523 0.0023247788 0.0030031316 -0.0006854509 0.0036297094 -0.003817074 -0.0023835471 -0.003912198 -0.003019932 0.0036656528 -0.004658234 -0.004311672 -0.004906024 0.00462915 -0.0013295014 0.0004954104 -0.0030930748 -0.0012978965 3.7098187e-05 -0.0012751577 -0.0037065432 -0.0030926946 0.0012450507 -0.004794488 0.0006067297 -0.0010062414 0.004190783 -0.00024184314 0.0031639657 -0.0035737022 -0.0037690185 0.0027743115 0.00047291513 -0.002510497 -0.0013459434 0.004429823 -0.004615274 -0.0018542643 0.00047952824 -0.000101669975 0.004753112 -0.0010056702 -0.0034954033 -0.0038767345 -0.004989595 -0.0038756484 -0.0030029393 -0.002967924 -0.0006953028 -0.00023768957 -0.0023426241 0.0011130562 0.0019614114 0.0045665954 -0.0023352203 0.0025782462 0.0036329709 -0.0018811087 -0.0036999828 -0.0016718762 -0.0034072427 0.0032544762 0.0046813195 0.0041326606 -0.00431261 0.0025393295 0.002574058 0.0028021755 -0.0041971006 1.954453e-05 -0.0034495774 -0.0044480874 0.001267087 0.0049807276 0.0032124273 -0.0035221505 0.0011406819 -0.001966565 0.00492773 -0.004404279 0.004884617 -0.003272243 -0.0035482058 0.00081148866 -0.00031816715 -0.0043056076 -0.00030866702 -0.0001987887 -0.0031404523 0.0028759171 0.0015783444 0.004209723 0.003675187 -0.0033493908 0.0023985351 0.002838728 0.0028922842 0.002597327 -0.0024098468 0.0021932907 0.0006363597 -1.2161431e-05 -0.0032337524 0.00076951465 0.0026369581 -0.0046069114 0.004313318 0.0015202893 -1.5335087e-05 -0.0016894984 0.00014712533 0.0030585127 0.0023975796 -0.003019084 0.0039694137 -0.0003157033 -0.0040553855 0.004413595 0.002586854 0.0018419672 0.003959594 -0.0037546696 -0.0028889272 -0.0009829509 -0.0020161269 -0.00079710915 -0.00030096687 -0.0042023207 0.0009729508 0.0012823346 -0.00041176484 0.002464868 0.0007348757 0.00301594 -0.0011255353 0.0042287223 -0.00075767393 0.0015713972 -0.0019028041 0.003058661 0.0015533627 0.00025480706 0.0043767756 -0.003926682 0.0048566023 0.00043705179 -0.0011464462 -0.002022079 -0.004558076 -0.0010714901 0.0013864473 0.003250176 0.0045162723 -0.0043960963 0.0045436197 -0.004396006 0.0018479092 0.004023042 -0.0012664878
too -0.003936798 -0.0041809753 0.00057853776 -0.0003762517 -0.004751587 0.0015399205 0.0011552512 0.0022513876 0.0021976284 0.0016177276 -0.0049152244 0.0028532392 0.0021288928 -0.0038686153 -0.0010658753 0.00017430396 -0.00031567027 -0.00047816435 -0.00278251 -2.5165516e-05 0.002218894 -0.00035206467 0.00040984477 0.0010411487 -0.0019881506 -0.0039468794 0.004593655 -0.004907456 -0.0012536831 -0.0006427276 -0.0038302888 0.00090569525 0.0039919913 -0.00075464486 0.0040577855 0.00015210305 -0.0028792 -0.001013737 -0.00035751215 0.0031091317 0.003554273 0.0031042465 -0.0030019695 -0.0035075657 0.0030757831 0.0012321554 0.0026622636 0.00023366147 0.003943159 -0.0044447905 0.00494545 -0.00412652 -0.0008369265 0.0031419753 -0.0046106507 0.0021571205 -0.003490378 -0.0034357843 0.0011420127 0.0008717565 -0.0014038011 0.003935773 -0.003497359 0.00021826974 0.0043411506 0.0010317807 -0.0034286468 0.0018015044 -0.002546758 0.00032562637 0.0014139727 0.0038054283 0.0036965539 -0.0024589421 0.004777652 -0.0027546617 0.0038287258 -0.0040019425 -0.0039224834 -0.00057059753 -0.0040720263 -0.0017431291 -0.00027091362 3.1367246e-05 -0.0049854997 -0.0032609855 -0.0036927806 -0.00019075228 0.0026042012 -3.192934e-05 0.0049986867 -0.0019372024 0.0040568104 0.0030531585 0.0041646017 5.098418e-05 -0.00021029361 0.0009393788 -0.0049500437 0.004534506 -0.0011953263 0.0037918796 0.001018075 0.0014530647 -0.0006259796 -0.0049742754 0.00070255174 0.0014522556 -0.0049231616 -0.0019621458 -0.0011705543 -0.0025476106 0.0019840144 0.0010618326 0.0021695558 -0.0032498538 -0.0029939606 0.002347166 0.00338307 0.002737107 0.0023975577 -0.0036104936 0.004067076 -0.0034928587 -0.0038441974 0.0042648963 -0.0012539958 -0.004694166 -0.0015474523 0.0029872924 -0.0014327425 0.0024684444 4.4382952e-05 0.0020222305 0.00057714 -0.004657003 -0.0018168567 0.0044243326 0.00077555625 -0.0029581035 0.0035310485 0.0037208411 0.0036045029 7.833902e-06 -0.0045779194 -0.0017422515 0.0025594176 -0.0032476685 0.0048928377 -0.004889384 -0.004066819 -0.0026793361 0.0030177187 -0.00383369 0.0042992444 -0.0049281623 0.0017441865 0.0016554616 1.0886926e-05 0.0047921147 0.002567667 0.00015311767 0.002419985 0.0032169893 0.0015219654 0.0047197207 -0.0006613058 -0.004202751 -0.0022446772 -0.00074770977 -0.003639287 -0.00077649497 0.00397213 -0.0025173535 0.0025661222 0.0021743937 -0.00037611515 0.0005618952 0.002884979 -0.0033348445 0.0019520049 0.004470132 -0.0017623288 -0.0038061135 -0.004607354 -0.004516272 0.0019564566 0.0025760673 0.003546368 -0.00071650784 0.00050352653 0.0015595374 -0.004958885 -0.004717698 0.002296406 -0.0041980096 -0.0015809909 -0.0021598202 0.0029676438 -0.0017201173
rude 0.004989482 0.00025127846 -0.0025570896 -0.0018068494 0.0006292229 -0.0027065212 0.003726612 0.0045371517 0.002118702 -0.003671741 -0.002992248 4.712889e-06 -0.00051001896 -0.0027556217 0.0039570346 0.0031180622 -0.0020911072 0.0012020245 0.0025574404 0.001150889 0.0042952816 -0.000657714 -0.0032595124 -0.00041436285 -0.0041687265 0.004919337 -0.004299947 -0.0007641787 -0.0014499116 0.0015620181 0.00250158 -0.0040906817 -0.0021760617 0.00025624473 0.001994216 0.0025701544 -0.0006854832 -0.00033415962 -0.0039110677 0.0022386482 -0.0038379354 0.001637246 -0.0017212046 -0.0039038465 0.0034780619 -0.00021843122 -0.0047843563 -0.0046970197 0.00029692563 -0.004085905 0.0018825938 0.0017208967 0.0016906719 -0.0028170855 0.004005776 -0.004506598 0.0037202917 -0.00034716417 -0.00076255243 0.0019850633 -0.0012647687 -0.002195164 -0.00120301 -0.0031063268 -0.0002119465 -0.002674275 0.002293494 -0.004720448 -0.0022147417 -0.004534111 -0.004818675 -0.0003610999 -0.0040312517 -0.002848036 0.0014233985 -0.00072708674 0.0015692132 0.004124026 -0.0048239245 0.0030280605 -0.003973966 0.0032499027 0.003708038 0.0043261717 -0.0039817127 0.0016578815 -0.0038919593 -0.0006152279 -0.0025989506 -0.004255057 0.0024907826 0.0022346524 -0.0019945137 -0.003863827 0.0018170957 -0.0019740579 -0.0044354578 -0.0021961096 -0.00108131 0.004396398 -0.0032156224 0.00369217 0.003071537 -0.0024618702 -0.0008887535 -0.0012877331 0.001573113 -0.00021472902 -0.0013935072 -0.0045332992 0.0032026381 -0.004825845 -0.004329398 0.0006949689 0.0014977381 -9.293328e-06 0.00019756825 0.0012755982 0.0008844215 0.0037403384 -0.0017144745 -0.003589042 -0.003962488 0.00393843 0.0009730419 -0.0028830604 0.003171146 0.004231931 0.0039532008 -0.0034006797 -0.0025646598 -0.0010073101 -0.0033042058 0.002355214 0.002816023 -0.002987231 0.0035986868 -0.0038244769 0.003103029 -0.002324603 0.0010118865 -0.0016477023 0.0016795642 0.003859835 -0.0006927601 -0.0024829505 -0.0042899526 0.0018335779 0.002143339 0.0033541652 -0.0021579296 -0.004897011 0.0034321283 -0.0022646638 0.002175667 0.0040553208 -0.0019849031 0.00084537425 -0.001818704 -0.0032790538 -0.0028214727 -6.21951e-05 -0.0037527 -0.00097393413 -0.0012193808 0.003377654 0.0006915021 0.0029338049 0.0019072683 -0.0017589794 -0.0025440622 0.004835315 0.0035477232 -0.0045354236 0.002639415 0.0041067484 0.0045774784 -0.003998752 -0.0009781101 0.00053763145 0.0014563346 -0.00079199363 -0.0023605211 0.0032401162 0.0034588308 -0.000200594 -0.0028806345 -0.0021660223 -0.0025481218 0.0021230972 0.0002860621 -0.0011500693 -0.0045722504 -0.00076100096 0.003196694 0.003165047 0.0021244884 -0.0014391567 0.0045333556 0.00029892323
that 0.0005715098 0.0030580163 -0.003320874 0.003280847 0.004911014 0.001826933 0.0017597941 0.0021492755 -0.0009926974 -0.004025837 0.00072200753 0.0004276874 -0.0034150246 0.0009881485 0.002693458 -0.0036016582 0.0012708124 0.0038924676 -0.0043395935 0.0016953569 -0.004256519 -0.0039924784 0.0035812298 -0.0037974012 -0.0006815115 -0.0039897026 -0.003924735 -0.0035758577 0.00017876331 0.00088990876 -0.00395323 -0.003992546 -0.0015370243 -0.00092436565 -0.0030849471 -0.0021090605 0.0018072277 0.0015005748 0.003298592 0.0021028002 -0.00045434062 0.001392166 0.0045195655 0.00092018035 0.000961673 0.00055372674 -0.0046719 0.002674493 0.0025517845 8.522074e-06 0.0046104915 -0.002873887 0.0016447399 -0.0038999387 -0.004452533 0.0009935378 0.0023791648 0.0030249897 -0.0043662344 0.002173522 0.0011804145 0.0020636474 -0.00032537308 0.0027493387 0.0035945724 -0.0041588233 -0.004967957 0.0035562827 -0.00052513246 -0.0046352446 -0.0020724866 0.00061313936 0.004220782 -0.0008600822 -0.00048503245 -0.0037150688 -0.0037726643 0.00070446194 -0.0002630995 -0.0038774167 0.0004433274 -0.0045091584 -0.0012574855 0.0021531612 0.0005380194 0.003878663 0.0033211687 -0.00057758624 0.0024751052 0.0030663686 0.0043925866 0.004543844 0.0025096068 0.0023229972 0.0036482415 -0.00078968296 -0.002815011 0.004438683 0.00061260327 -0.0025068258 -0.00045790523 -0.0025745237 0.004567341 0.0017079466 0.0021405753 0.0032013622 0.0040968996 -0.0023650383 -0.0032032551 -0.0018971055 -0.0018402969 -0.004775193 -0.00029486555 -0.004022968 0.00489278 -0.001735582 -0.0031493632 -0.004073601 -0.0017850382 -0.0048081246 0.00038409533 0.0027227064 -0.0014540615 0.0038032762 -0.0009598025 -0.0036119733 -0.0015932716 -0.001565862 -0.0035551928 -0.0048482674 -0.002009946 -0.0008125466 0.002495346 -0.003829113 -0.0025232446 0.00068600936 -0.00082405144 0.0017715008 -0.00092614675 0.002137696 0.004035566 -0.003983094 0.0018318384 0.0029854805 -0.00028458217 0.003382952 -0.002716773 -0.0022976361 -0.0038983638 0.004727393 -0.0047079776 -0.001658323 -0.00020128593 -0.0024166 0.004708285 -0.0033998522 -0.0040052636 0.004632642 -0.0041667316 0.0048873927 -0.0020241027 0.0028381713 -0.00019384258 -0.0019914692 -0.003727317 -0.00310921 0.003420013 0.0031418365 7.13559e-05 0.00320673 0.0019191055 0.001917488 0.0013634381 -0.004855986 0.004657025 -0.00410679 -0.0015499106 0.00073933706 0.0026482393 -0.0046228413 0.00084140955 0.0031927584 -0.0043934295 0.0047714096 -0.0026151598 0.0047587007 -0.003230655 0.003323943 0.0047349767 -0.0046067424 0.00016817184 -0.0038173427 0.0040366524 0.004770073 -0.003025701 0.00044683952 -0.0010967057 -0.0038862554 0.00042278587 -0.004961289
family 0.0013303657 -0.003921052 0.0028303047 0.003821439 -0.0012678982 -0.002044352 -0.004723191 0.0025398878 0.0014037765 0.004411451 0.00159807 -0.0015126034 0.0017722205 0.0043411236 0.0045701736 0.0038118018 -0.004273296 -0.0037556975 0.0036095397 -0.0038741431 0.0016530656 0.0039677946 -0.0015500538 0.0033750911 -0.004095226 0.0032356435 0.0027909323 0.0016307539 -0.0041364785 0.004545716 0.004151833 -0.00070130936 0.0021515754 0.0031977708 -0.0008814436 0.0027796046 -0.0020189048 -0.0006973032 -0.00061525824 -0.002143818 -0.00038658147 -0.00383838 0.0017948748 0.0045103757 0.0024826282 0.003176873 -0.0024028684 0.0023928473 -0.0033234442 -0.00248534 0.0049626906 0.003168702 -0.0024524734 -0.0030601104 0.003672799 0.0013385023 0.003293035 -0.0034471992 -0.000561724 -0.0004824934 -0.00016436714 0.0010743288 -0.003350863 0.002163335 -0.0014895374 0.004236073 -0.000523009 0.00468802 -0.00052669155 0.002730767 -0.0038542948 -0.0045168316 -0.00016282548 -0.0011268349 0.005056827 0.002240036 -0.0027110917 0.003642817 0.00026215447 -0.0048117754 0.0028709366 -0.001046182 -0.0047737835 0.0044593364 0.0035720936 0.004210083 0.00027585326 0.0038847362 0.0025979446 -0.0034415866 0.0046889414 -0.0017517626 -0.0047819945 0.004333197 -0.0025475875 0.00418685 -0.0038966865 0.004662809 -0.0029480124 0.0020458207 0.0048888745 0.002165864 -0.0010353103 -0.0024809474 -0.004898424 0.0020017207 0.0037469054 -0.0023440167 0.0029244728 0.0033709896 -0.0045019025 0.00096836704 -0.003412282 -0.0021430948 0.00043299387 -0.0035667126 -0.0020346928 -0.003831556 -0.0035448158 -0.003563704 0.0049625905 0.004223184 -0.0001320802 -0.0013795116 0.0031219015 0.0007372865 -0.004580188 -0.0035304683 0.0004769788 0.0039693196 0.0016362361 0.0049160165 0.0032781507 0.000104710445 0.0042672697 0.004529087 0.0040176287 0.0046919524 -0.0047068615 0.0017089859 -0.0038151413 -0.0036418084 -0.004303998 0.0015981406 1.2131617e-05 -0.003176901 0.0027473064 0.003977702 0.0022063684 0.003928159 -0.0021413055 -0.0032527552 0.0020341272 -0.0014523395 -0.0036896595 0.0019000677 -0.0016900745 -0.0025472771 0.0012544222 0.0035083827 0.0032629494 8.463414e-05 0.0043510697 0.0015174879 0.003353715 -0.000393987 0.0010821766 0.0030910212 -0.004918524 0.0029522504 0.00065245584 0.0030598156 -0.0006893716 -0.0013623011 -0.0027391743 -0.0014052032 -0.0013586091 -0.0025137295 0.0005458997 0.0040042815 0.0025496234 -0.0038093794 -0.0037409489 -0.001451501 0.0019271605 -0.0046846047 0.003166319 0.0016295307 -0.0013332859 0.004595598 0.004099655 0.0004520382 0.0023524372 -0.0046727406 -0.004441231 -0.001450533 0.0046980307 0.0016162003 0.002829316 -0.0033959385
or 0.002127046 0.0001673437 -0.00045871708 -0.001614897 0.0024915806 -0.004566337 0.0025928782 0.0028685965 -0.0012369865 -0.0020862543 -0.0037164346 -0.0032092035 -0.0025645061 0.0015848809 -0.0024182883 -0.0006040951 -0.004455607 -0.0017463847 -0.00041014302 -0.0040223342 0.0016398476 0.0048616594 0.0022175345 0.0009278709 -0.0024357243 -0.0005768977 0.0011293603 0.00085149735 0.004380957 -0.0004734166 0.003507534 0.0029197908 0.0015563065 0.0036590095 -0.0024739746 -0.0019714138 0.003490287 0.0042775273 0.0015753797 -0.0020696817 0.0038114723 0.0013614842 -0.00012061853 0.004411502 0.002190903 0.001974426 -2.2464379e-05 -0.0044729174 -0.0015448624 0.0012158806 -0.0027953815 0.003542189 0.0037411463 -0.004472532 -0.0026785426 -0.0029957728 -0.00032777138 -0.00092478155 -0.001043567 -0.0011038211 0.001767244 0.004798953 -0.002284297 -0.004153864 0.0018311171 -0.0032011585 0.0033394422 0.0013688488 -0.003970867 -0.003833822 -0.004643195 0.0011917164 0.0013770352 0.0012997232 0.00011371601 0.0005010728 0.001573293 -0.0007975878 -0.00403321 -0.00032818632 0.0018573699 -0.001312131 -0.0010863343 -0.0010883918 0.0036143858 -0.0015450317 0.0047454964 -0.0019266831 -0.004987091 -0.0032733772 -0.0021633096 0.00063269766 0.0025990354 0.0010791597 0.0045612226 0.00044144466 0.0028248872 7.991101e-05 -0.001057553 0.0031295957 0.0010012614 0.0041634454 -0.004140745 -0.004372916 -0.00027542387 -0.0009862871 -0.0011658074 -0.0002790788 -0.0025556684 -0.0040319953 0.0041316976 -0.0017024225 -0.0014082764 -0.000803114 -0.0006108613 -0.0046180105 -0.00089261663 -0.00069329474 0.0043150326 -0.004014712 -0.002373146 -0.0009284737 0.0014228408 -0.003034221 -0.0027889612 -0.0039577642 0.0027405438 -0.0043540997 -0.0016331245 0.00014667698 0.00073649903 -0.0049761008 0.004321763 -0.0010430244 0.00015616888 -0.0043929424 -0.004079483 0.0018835485 0.0020117925 0.0014749855 0.0029540106 -0.0034861166 -0.00065361446 -0.0013637231 -0.000701077 0.0022357346 0.00067585905 -0.0037197894 0.0016440022 0.0031236385 -0.0030555436 0.0015905804 -0.0021382323 0.0044112345 0.002039172 0.0010372605 -0.0005126607 -0.004538131 0.004306576 -0.0008746705 0.0037105281 0.001886211 -0.004120084 -0.00029196462 0.001397155 -0.0012586964 0.0048704073 -0.002496735 -0.0035890515 0.0019055572 -0.0017838752 -0.0034448078 0.0010298166 0.0026327828 -0.002724721 -0.0021868388 -0.00361809 0.0007978411 -0.0023534747 0.004209196 0.0003557293 0.0009465203 -0.0016774199 0.003684969 -0.00033412402 -0.004118643 -0.003636284 0.00013115609 0.003908806 0.0015458768 -0.002633968 -0.0033382317 -0.004950628 0.0019474871 -0.0047669746 0.0016064784 0.00085124694 -0.0004179395 -0.0049642758 0.0029382366
usually -3.0401723e-05 -0.005044391 -0.0037666117 0.0043219733 0.00094408955 -0.0041251597 -0.0003128387 0.0027904722 -0.0047391052 -0.0034044224 -0.0005756978 -0.0049508354 0.00024863004 0.0010130856 0.004218377 0.00048494173 0.00065546896 0.002476674 -0.0021723618 0.0034514165 0.00012286902 -0.0004172769 -0.0048098196 0.00024601232 0.0033842458 0.00085141463 -0.004023011 -0.0017026552 -0.0031081513 0.0029728606 -0.0031980902 0.002726978 -0.0025291718 -0.0034030974 -0.0037894635 0.0019544915 -0.004382931 -0.002926164 -0.0035466403 -0.0022329101 -0.0020657578 0.0007486602 0.0032104247 -0.00062575034 -0.002627975 0.000778862 0.0027802393 -0.0026580973 -0.0026416155 0.0025880572 0.0031690276 -0.003928555 0.0041500656 -0.0049359044 -0.0036576237 -0.0029688508 0.0008837134 -5.2089155e-05 0.0016384765 0.0035033894 0.0023435075 -0.0016133685 -0.0032059622 -0.004161371 -0.00035463585 0.0049177683 -0.0038373664 0.001956663 0.0020856198 -0.0020231626 -0.003523968 -0.0026782851 -0.0025097977 -0.003507305 0.0030579462 -0.0038977927 -0.0013795485 0.0021433993 7.2801944e-05 -0.0038759378 -0.002332546 0.0017447887 0.0011992805 -0.0008737627 -0.00041135636 0.001206065 0.00080239394 -0.0012806784 0.002700614 -0.003794342 0.003245741 -0.004947704 -0.0010338251 0.003408045 -0.0016841545 0.0032548402 0.0027266487 -0.0037030217 -0.000102696846 -0.0021888055 -0.004026111 -0.00036792312 0.0032297573 0.004344118 -0.0025441672 -0.0014294495 -0.0029699833 0.00061049825 0.0012846872 -0.0049590557 0.001201838 -0.004497687 0.00021570521 0.0024037275 -0.0026139063 6.197162e-05 -0.0010535374 -0.004407476 -0.0012518816 0.0021331236 -0.00426599 -0.0029037523 -0.00031232994 0.0039469623 0.00069048366 0.004957891 -0.0039084726 0.004482488 -0.0024135304 -0.0031660553 -0.0038882338 0.00091991527 -0.001394414 0.0037252395 -0.00032259713 0.0012718253 0.0029739095 -0.004331659 -0.0010345657 -0.0024373455 -0.0042440854 0.0016601583 0.0011294951 -0.0012010518 -0.0009462239 -0.0033595914 -0.0016364286 0.00068020215 0.0039361757 0.0035368423 -0.0018000919 0.0017065428 -0.0012346025 -0.0023643787 -0.0019383447 -0.003001555 0.0017094504 -0.0038247583 -0.0038304997 -0.0021739623 0.0037756178 0.0009309121 0.0027500987 0.0041589052 -0.0030396564 -0.0022356645 0.0038516822 0.002477789 0.002300947 0.0045109 0.004403747 -0.001299748 0.00055883854 0.0027118463 0.0044989972 0.004950857 -0.0042193406 -0.0024708712 0.0025607112 0.0004681396 7.801862e-05 0.003784496 0.003160872 -0.0036331923 -0.0013202569 -0.004272748 0.0036582262 0.0014485135 -0.001041359 0.000924318 0.0039117145 0.0041729957 0.0029942775 0.0015424037 0.0007368997 0.0040969686 0.0007283019 0.0002182742 -0.0047499426 0.0012408515
- -0.004235214 0.0032112913 -0.0029032496 -0.000868252 0.0004880771 -0.0009478917 -0.0045253714 0.0020274261 -0.0033001679 -0.0043884222 0.001941839 -0.00039333326 0.003256151 -0.0035118836 0.00037137393 -0.0003452613 0.002877526 -0.0048570763 0.0029437433 -0.004538233 -0.0038784742 0.00035360418 -0.001311144 -0.0019525727 -0.0026572044 0.0020376262 -0.0046515893 0.00056467357 0.0020896848 -0.00015556293 -0.00024677615 0.0036085676 -0.0047474317 -0.0045064106 0.0022296356 0.004366202 -0.0038994486 -0.004180559 -0.0003155301 -0.004535967 0.0010596985 0.004626197 -0.0030660136 -0.0034008138 0.004498046 -0.0003901419 -0.0018853178 -0.0013607705 -0.0043548965 -0.0023240524 -0.0020633347 0.00011232688 0.00035584185 0.0038154053 0.0034232347 -0.0007548655 -0.00499053 0.0012770115 -0.0030642191 0.0045558107 0.0018915599 -0.0005091637 0.003313735 -0.001760238 -0.0018782465 -0.00014015143 0.0041940897 0.0030038103 0.0007490374 0.0019256624 -0.0015131212 0.0046484224 -0.003554481 -0.0016231304 -0.0026249746 0.004343157 -0.0015272293 -0.0012200902 0.0035517944 -0.0048711617 -0.0014513605 0.0014316657 -0.0031509683 0.004416108 0.0005653196 -0.0026410008 0.0024823227 0.003997957 0.0004679247 0.0034154216 -0.0033914167 -0.0018102805 0.0050070533 0.002862006 0.0008446727 -0.0017524606 0.0022198942 0.0012712335 0.004180957 1.0426217e-05 0.0042952895 -0.0028973552 -0.0037998832 -0.0006972081 0.0014861637 -0.0010361567 0.0029510437 -0.0041847574 -0.004528286 0.0037695165 0.0031746856 -0.0020756705 -0.0020019826 -0.0017619897 -2.1765016e-05 0.0045193937 0.00048323456 -0.00103987 -0.0017077145 -0.0010691078 -0.0046031377 0.0034250943 -0.004528614 -0.001575123 -0.0035760684 0.00454763 0.0028646511 -0.00024218888 0.0019518648 -0.0012170111 0.004923653 -0.0018197015 0.002431506 -0.0019098804 0.00475313 0.004755253 0.0031212997 -0.000118641474 -0.00084223406 -0.0043515 0.004697318 -0.004231708 -0.0033010864 0.0027875435 -0.0011501098 0.003983464 -0.003941321 0.0045957235 0.0011480161 -0.0042881644 0.0019655442 -0.0025016044 0.0032036651 0.003300169 -0.004396103 0.0032355222 0.0026324526 0.0032507 -0.0035396607 -0.0032512164 -0.00441125 0.0026370494 -0.0019965174 0.0024177064 0.0024179937 0.0040702582 0.001129457 -0.0005608151 0.0007168821 0.0014921397 -0.004395731 -0.002986487 -0.00045712802 0.0024381566 -6.0037444e-05 -0.0048347656 -0.00034523153 0.0035949873 0.0031915135 0.0017255623 -0.0023008962 -0.0018418127 -0.0010527287 -0.0030020874 -0.004309631 -0.00029237862 0.00092907913 0.0024411103 0.0018350345 0.004286757 -0.0033677462 0.0046754233 -0.0016967792 0.00038986118 -0.002129936 -0.0020232883 -0.00074169884 -0.0037566768 0.004497672 0.0022774863
in -0.001131228 0.00093871704 0.003912073 -0.002808204 0.0019155394 0.0003422731 0.001462429 -0.0010489863 -0.0049457955 0.0029406804 -0.00072080747 -0.0041643376 0.00034934728 -0.0030845178 0.0038322501 -0.0032031243 -0.00082068384 -0.0001952182 -0.0021487828 -0.0017484685 0.0036829866 0.0009168532 -0.004683852 -0.00013749416 -0.0047733607 -0.0015841443 0.0024841991 0.0018418247 -0.0028847342 0.0007236664 0.0029082699 -0.003729159 -0.001673948 -0.0012374758 -0.004450999 0.0010616544 0.0032506734 0.0012035676 0.001187354 -0.00041686534 -0.00041019655 -0.0031331608 -0.00025422467 0.003294398 0.0015091426 0.00027092057 0.0039113904 0.0013964791 -0.0037031288 0.0036565573 0.0047825486 -0.0045456695 0.0036226262 -0.0037946184 -0.00017079388 0.002303414 -0.0028782482 -0.0039958637 -0.0036608614 -0.004946782 -0.0033407668 0.0047773034 0.0014694856 -0.004544081 0.00423502 0.00362506 0.0039300695 0.004834978 -0.0043566804 -0.0010729278 0.0010385691 0.0012263271 0.002422261 -0.003869249 0.0024335124 0.0049666776 -0.004467684 0.0039371564 0.0015990655 -0.0020922294 -0.0007656799 -0.0042613083 -0.003766493 0.0027822 -0.001571597 0.004984276 -0.0039905673 -0.0035115008 0.0030785147 0.003947732 0.0018592646 0.0036290796 0.003267078 -0.0028735849 0.0043721553 -0.0031651505 -0.0014407566 -0.0029903848 0.0030537497 -0.0021839123 0.0015419452 -0.0007716149 -0.0005912013 -0.0029312517 -0.002890403 -0.0018180808 0.00016780994 0.00073624786 -0.0016612167 0.0009614588 -0.0028390104 0.004979259 -0.00040888894 -0.003472669 -0.00092665385 0.0039582164 -0.00054290093 -0.0025863003 -0.0040297024 -0.0029548346 -0.0015933624 0.003876081 -0.0036180634 0.0007060035 -3.838929e-05 0.001982497 -0.0039866487 0.0039768405 -0.0014024734 0.0026561164 -0.0047454624 0.0025399565 -0.0041264645 -0.0016422439 -0.0006015839 -0.0018173392 -0.00036389564 1.8146597e-05 0.0022550635 -0.0011380968 -0.0019885085 -0.0030998006 0.004148568 0.0023044015 0.004552081 0.0027422959 -0.002313541 0.004145876 -0.0034671403 0.0015171678 -0.001679461 0.0001138002 0.0018898335 -0.0014130609 -0.0022308547 -0.0009594764 0.00025920977 0.0032405108 -0.0029441873 0.002353591 -0.0018487632 -0.0039732144 -0.002795111 0.00093565806 0.004413567 0.0039552804 0.004597996 0.0034461876 -0.00148337 -0.0012090751 0.004402782 0.0032442699 0.0030147526 0.0034462693 0.00081939716 0.0012062569 -0.0041236975 0.003787486 0.0047397916 -0.0035459918 0.00057418196 0.004380658 0.0018215245 0.003471816 0.0038100686 -0.0009653922 0.004458024 0.0030115119 -0.00092359557 3.3798224e-05 0.0048708864 0.0029336552 -0.0033640105 -0.0017621556 -0.0017576871 0.0015606915 0.0005679605 -0.004305496 0.0010911218 0.0048099617
saul 0.0011760677 0.0021418282 0.0009788068 0.0040595033 0.004439053 0.0015799237 -0.0012190876 0.0018034921 -0.003855389 0.004007402 -0.0020029696 0.004964145 -0.0047945934 -0.0012817215 0.004443001 -0.002039982 -0.0009787768 0.0025183554 0.004637735 -0.00018369989 -0.0033999623 0.004995318 -0.0047621834 0.00062264036 0.002783194 -0.0039200517 -0.0028147388 -0.0045624105 -3.661566e-05 0.002500945 -0.0041153 -0.0015419762 0.004197645 -0.0022297762 0.0015866122 0.0017561688 -0.0017895737 -0.002587765 0.0041633286 -0.0012581685 0.004481949 -0.0012075277 0.0015223923 0.0027958655 0.00028328304 0.0021938763 -0.002983267 0.0042065578 -0.00081844925 -0.002206777 0.0025565824 0.00495998 -0.002830465 0.00042108892 0.0021672843 -0.0013732706 0.00031978954 0.0044113067 0.0038616364 -0.0032279785 -0.0016032385 0.0046103024 -0.00016012204 -0.004784647 -0.00035795986 -0.0034020592 0.00046043302 0.00040833835 -0.0021988594 -0.0022951458 0.0043989196 0.0022939763 0.0012870572 0.0009217289 0.004115062 -0.002498732 0.003055316 -0.0004942735 -0.0038314788 -0.0048488206 -0.0008397895 0.004061147 0.0011030012 -0.004489066 0.00060906046 -0.001812162 -0.0020300278 0.0040630354 0.0029112839 0.00018238183 0.0012264096 0.0004497922 -0.0049597123 0.0014964323 0.0035950711 0.0019927758 0.0012373818 -0.0017756091 0.0011697974 -0.003817236 0.0021058593 0.0012012644 -0.00020317087 -0.00029821106 0.0013185714 0.0011124051 0.0007392896 0.0045687994 0.0017647453 0.00069514813 -0.0014656654 -0.0030350077 -0.004655256 -0.0016291909 0.002174642 0.0037872342 0.00031981088 -0.0023888755 0.0017992301 -0.0019487281 -0.00038334506 0.0044291234 0.004084311 -0.00021148496 -0.0029562213 0.0018463304 0.004903951 0.0043348917 -0.00095458137 0.003573946 0.0046358216 -0.004782198 0.004443857 8.069422e-06 -0.0025980659 0.0018367011 0.0044810753 -0.0036201251 0.003437126 -0.0032164655 -0.0038922087 0.0027541448 -0.002286129 0.002379728 0.0036820227 0.004825942 0.00285627 -0.0044350936 0.0016198962 -0.004495677 -0.0001852016 0.004890283 -0.002560381 0.0020509441 -0.0028641906 -0.0040267063 0.004011023 0.0016235608 0.0036870805 0.0014676102 0.0005801559 0.0018622788 -0.004212138 0.0032984954 -0.0022444755 0.0023077019 -0.0027300976 0.0005176422 0.002009969 -0.0012410226 -0.003766563 -0.0030187652 -0.0049673915 0.0048418543 -0.0021943762 -0.0005317578 -0.0045119906 -0.0022864921 -0.0024417257 0.0015069583 0.0028269764 0.0017526615 0.004930652 0.000948202 0.004937042 0.0037781154 0.0013818527 0.0010725379 -0.0037562954 -0.0011812414 0.0028213332 -0.0040703495 0.0011304298 -0.003794119 0.0048259553 -6.181681e-05 0.00045445657 -0.0023907574 0.003057006 -0.0035620043
have -0.0037065446 0.003304998 -0.0016879074 -0.00045940652 0.0026805606 0.0022847003 0.0031089578 0.0035226592 0.0028087776 -0.004458585 0.0025711693 0.0045621344 -0.0020067333 0.0005372527 -0.0016419546 -0.0017062115 0.00434992 -0.00013931654 0.0017008234 -0.0027755583 0.002892624 -0.0016806051 -0.0024849286 0.0010964148 0.0048581976 -0.0030708874 0.0017905293 -0.0004992895 -0.0036011427 -0.0021673462 -0.004111841 0.0027967142 -0.0013709669 -0.0026056932 0.00049929833 0.0022959143 0.004751225 -0.004873467 -0.0001368029 -0.0006150666 -0.001350739 -0.00026454512 0.0040630214 -0.0009402304 0.004677144 0.00018545779 -0.00053219614 0.0034544098 0.0034756497 0.00023035154 -0.00014743119 0.0031665761 -0.0019197286 0.0022982617 -4.1327043e-05 -0.003037043 0.003222066 -0.0020245174 0.0011042977 -0.0034256477 0.0013408404 0.00279151 0.0025579168 -0.004042997 -0.0029558202 0.003573049 0.0015579525 0.00055905874 -0.003102204 -0.0006881743 -0.004615687 0.00063536986 -0.0022818171 0.00037340267 0.002252063 0.0011974383 -0.003557647 0.00042392308 -0.0033643525 -0.0019471113 0.000948507 0.003983852 -0.0032633427 0.0011774175 0.004066822 0.0049544815 0.0030848323 -0.0036947501 0.0019329328 0.004418936 0.0020800815 0.0012590977 -0.0007853148 0.0017929912 0.0020880424 0.004411488 -0.0019067691 -0.004376242 0.003252533 -0.0031102404 -0.00030224232 0.000712468 -0.0005919399 -0.0020232084 0.00042824948 -0.0048469743 0.00070008595 -0.0020848082 -0.002904129 0.0019016254 0.0007273575 0.0018229326 0.00045016225 -0.004758121 0.0049940683 -0.001768943 -0.0010978624 0.0035691077 3.8906957e-05 0.0015232448 0.0011272413 0.0011931306 0.0033816046 0.004734516 -0.00028265698 -0.001708568 0.002273481 -0.0041689756 0.0042351605 0.0012042738 0.0030001001 0.0014013593 -0.0006665791 0.0004747613 -0.0024009987 0.004545175 0.002517517 0.0018066926 -0.0025041485 -0.004330295 0.0039735073 0.0014702159 -0.002126952 -0.0043347226 -0.0019813937 0.0007040994 -0.004597585 2.6600013e-05 0.0014006137 -0.0049752262 -7.635758e-05 -0.0030405663 -0.0018013583 -0.0008160765 -0.0049924976 -0.0018072182 -0.0035108777 -0.0036675497 0.0007920197 0.0011755059 0.0046470966 0.0044310316 -0.0032085488 -0.00460822 0.003953292 0.0027162668 0.0034724474 -0.0014717829 -0.0026192374 -0.0022832118 -0.0041687805 0.002940351 -0.0017212724 0.0043226522 -0.0028384905 0.0048185037 -0.002260021 0.004338321 -0.0026990038 -0.003758843 0.0038313118 -0.0048835273 -0.004393206 0.0024748642 -0.0048782695 0.002639389 0.0018335194 -0.0035055578 0.0015818118 0.0007284707 0.0043289387 0.0014466859 -0.00256873 -0.0011809034 0.003423893 -0.0033099344 0.0046506743 -0.0016069027 -0.0023235807 -0.0021839598
